%YAML:1.0
---
opencv_ml_ann_mlp:
   format: 3
   layer_sizes: [ 400, 100, 16, 2 ]
   activation_function: SIGMOID_SYM
   f_param1: 6.6666666666666663e-01
   f_param2: 1.7159000000000000e+00
   min_val: -9.4999999999999996e-01
   max_val: 9.4999999999999996e-01
   min_val1: -9.7999999999999998e-01
   max_val1: 9.7999999999999998e-01
   training_params:
      train_method: BACKPROP
      dw_scale: 1.0000000000000000e-03
      moment_scale: 0.
      term_criteria:
         epsilon: 1.0000000000000000e-02
         iterations: 10000
   input_scale:
      - 2.2030155189836242e+00
      - -6.2364445154943537e-01
      - 3.7328178650532924e+00
      - -1.7211909976750015e+00
      - 4.7690759365052315e+00
      - -2.3408978118053740e+00
      - 5.6266199138259152e+00
      - -2.8415553868367684e+00
      - 6.3649345196570666e+00
      - -3.1865164150711616e+00
      - 5.9618025303775823e+00
      - -2.9621599869726478e+00
      - 6.0288107855743940e+00
      - -2.9924807562481179e+00
      - 6.0912814470580914e+00
      - -3.0795426409158417e+00
      - 6.4023666910844108e+00
      - -3.1575214803794602e+00
      - 6.0802980821111259e+00
      - -2.8969640534248109e+00
      - 5.4324003413891031e+00
      - -2.6853938278178404e+00
      - 5.9656217324706162e+00
      - -2.8850687638639503e+00
      - 6.0470069632604053e+00
      - -2.9181111959421906e+00
      - 5.8941608540842108e+00
      - -2.8191386264578102e+00
      - 5.9728807732713740e+00
      - -2.9295597823924506e+00
      - 5.8782214043215530e+00
      - -2.8932628938518161e+00
      - 5.7393273199320349e+00
      - -2.7540325732951376e+00
      - 3.9618204474016223e+00
      - -1.8373463349352119e+00
      - 3.4562384017176995e+00
      - -1.5163045919207194e+00
      - 2.3743308218740049e+00
      - -7.8497994850438546e-01
      - 3.7962385768634181e+00
      - -1.7879158344301382e+00
      - 4.5483645307268770e+00
      - -2.2774644515375400e+00
      - 5.7405689818762591e+00
      - -2.8985347939705508e+00
      - 5.7393122754780448e+00
      - -2.9698927035208351e+00
      - 6.1926226356159013e+00
      - -3.1183596264459568e+00
      - 6.3897998581193240e+00
      - -3.1524211215633215e+00
      - 6.7528536741770457e+00
      - -3.3346267893856352e+00
      - 6.9226322412691639e+00
      - -3.3665080207402958e+00
      - 6.7703996909554283e+00
      - -3.2333204977797259e+00
      - 6.4359663444741324e+00
      - -3.0562692601453523e+00
      - 5.9732193229806452e+00
      - -2.9033180242342524e+00
      - 5.8755092533513755e+00
      - -2.8241988784664573e+00
      - 6.5248726815168165e+00
      - -3.1019225335389713e+00
      - 6.7722729565831541e+00
      - -3.2435814124709106e+00
      - 6.2166868260443540e+00
      - -2.9117672673906516e+00
      - 6.0983322620209268e+00
      - -2.8126236678735892e+00
      - 6.4784426746935635e+00
      - -3.0684654417606287e+00
      - 5.5306944704841587e+00
      - -2.5892565885558119e+00
      - 4.5428455122160383e+00
      - -2.0740207669723434e+00
      - 3.1989839298250740e+00
      - -1.3762223153940480e+00
      - 4.5900693549581684e+00
      - -2.2902808140113273e+00
      - 5.3971160329309260e+00
      - -2.8164801604312624e+00
      - 5.8358468882505719e+00
      - -2.9773104457131137e+00
      - 6.0806609369751587e+00
      - -3.0784195306132909e+00
      - 6.2796195124558265e+00
      - -3.1083852236883729e+00
      - 6.7350706067877733e+00
      - -3.3222790269864371e+00
      - 6.1077886055469577e+00
      - -2.9613158583864099e+00
      - 6.2258539711149607e+00
      - -2.9184754720491903e+00
      - 7.3901262940818295e+00
      - -3.5012088231305776e+00
      - 7.0134429539932110e+00
      - -3.2956377570967441e+00
      - 6.8210480521284103e+00
      - -3.1567600822390398e+00
      - 6.9149073267938848e+00
      - -3.2565789623474597e+00
      - 6.7922235775015087e+00
      - -3.2053342230540558e+00
      - 7.0263123734052009e+00
      - -3.3437329607928228e+00
      - 7.3115108252400391e+00
      - -3.4333241636916361e+00
      - 7.0691748548553610e+00
      - -3.2988261572677042e+00
      - 6.9625059728416039e+00
      - -3.2471214000772917e+00
      - 6.7973900787626071e+00
      - -3.1494686573180770e+00
      - 5.9153781446030873e+00
      - -2.7767098806924495e+00
      - 4.4160742680091376e+00
      - -2.0113073487481508e+00
      - 5.2103836388386418e+00
      - -2.6765043453122712e+00
      - 5.4085865756593750e+00
      - -2.8283170874686840e+00
      - 5.8531474365404819e+00
      - -3.0007498225648548e+00
      - 6.2828046898668513e+00
      - -3.1471607867553706e+00
      - 6.4501922826665670e+00
      - -3.1431162555088910e+00
      - 6.8921548756771118e+00
      - -3.3657279527259858e+00
      - 4.2258194719153055e+00
      - -1.9452994506234194e+00
      - 4.8564301059089425e+00
      - -2.0233664321471676e+00
      - 2.9361381612794628e+00
      - -1.0752402235904066e+00
      - 3.3602959305610276e+00
      - -1.2606982952165784e+00
      - 3.7528595095015946e+00
      - -1.5111861509882258e+00
      - 5.5157095710247912e+00
      - -2.4116004394813535e+00
      - 5.8312142314004518e+00
      - -2.5849396615875095e+00
      - 4.4152948990833361e+00
      - -2.0042989733256045e+00
      - 6.5876107781883206e+00
      - -2.9751927186794047e+00
      - 6.7669651379346911e+00
      - -3.0781099326636499e+00
      - 6.9250586014556941e+00
      - -3.1200039269042064e+00
      - 6.9976712365701577e+00
      - -3.1571856269408567e+00
      - 6.6118213633516207e+00
      - -3.0536047054222060e+00
      - 5.7844180107246839e+00
      - -2.5971431854311295e+00
      - 4.9855068783835996e+00
      - -2.6815463080687039e+00
      - 5.6449913208907567e+00
      - -2.9708830056653595e+00
      - 5.9100607388011435e+00
      - -3.0894911537934857e+00
      - 6.0093173892025549e+00
      - -3.0449838802161193e+00
      - 5.5017515225652591e+00
      - -2.6227482901129910e+00
      - 5.6782085586337194e+00
      - -2.6325982408565674e+00
      - 3.4731106661488060e+00
      - -1.4580028335138520e+00
      - 1.5671339440599161e+00
      - -3.5340640638078119e-01
      - 1.0226964502610025e+00
      - 1.9746584181124674e-01
      - 1.1351301097013942e+00
      - 2.3952703198745784e-01
      - 1.1678599669933227e+00
      - 6.8560855126052089e-02
      - 1.5445691302009672e+00
      - -3.3764533270943414e-01
      - 3.3734501905350798e+00
      - -1.3321171924932056e+00
      - 5.7673199718956214e+00
      - -2.5646707520684204e+00
      - 6.0994899934120586e+00
      - -2.7095188362406830e+00
      - 6.0645364588624444e+00
      - -2.6948394508824638e+00
      - 6.5061623531385395e+00
      - -2.8799699347029608e+00
      - 6.2478944498090261e+00
      - -2.7692704717788028e+00
      - 6.4945594213950626e+00
      - -2.9924960552456179e+00
      - 6.4874107511596506e+00
      - -3.0221582840852936e+00
      - 4.6701252706002006e+00
      - -2.5329770652168051e+00
      - 5.9561810719842363e+00
      - -3.1662274711438854e+00
      - 6.1186703836578102e+00
      - -3.1643775036289923e+00
      - 3.6189303740799019e+00
      - -1.6450710548150413e+00
      - 2.4973311223664472e+00
      - -1.0336111413813291e+00
      - 2.0896263723721544e+00
      - -8.0619870106499725e-01
      - 1.6378479156927852e+00
      - -5.1726857087366740e-01
      - 1.0358574772157509e+00
      - 1.6311418686648725e-02
      - 7.3903510765440283e-01
      - 6.2286048951672468e-01
      - 8.2634324708548623e-01
      - 7.0351987392037696e-01
      - 7.9635675777636861e-01
      - 3.6812775685876065e-01
      - 1.3060834782196897e+00
      - -2.0498761762000320e-01
      - 2.4027382324196638e+00
      - -8.6988103857922716e-01
      - 2.3607933358433248e+00
      - -8.7644880763921129e-01
      - 2.3233024020658761e+00
      - -8.5881415142555040e-01
      - 2.9090878933415749e+00
      - -1.1409498926266821e+00
      - 6.3835347445122625e+00
      - -2.8414404893045937e+00
      - 6.3669432377736852e+00
      - -2.8759579424758170e+00
      - 6.7585611558952170e+00
      - -3.0866813318551989e+00
      - 6.5502600562181534e+00
      - -3.0309450977997479e+00
      - 5.5654795262297760e+00
      - -2.9650821102772444e+00
      - 6.1107616796404205e+00
      - -3.1814367573014244e+00
      - 3.9372010114436384e+00
      - -1.7526864089488716e+00
      - 1.5259531315482961e+00
      - -1.6041719594852680e-01
      - 9.2622570308923857e-01
      - 3.8038843906496672e-01
      - 8.6174817314529084e-01
      - 4.4921504230895043e-01
      - 8.2572580296183273e-01
      - 4.6180436804500141e-01
      - 8.2046324822177841e-01
      - 6.7360912072425982e-01
      - 7.8846226278261311e-01
      - 1.2060603886662891e+00
      - 8.7323814218030937e-01
      - 1.3656233057540446e+00
      - 7.9848983449227062e-01
      - 8.0259314209053734e-01
      - 8.8623885140449221e-01
      - 3.5624935053888823e-01
      - 9.4716646107135760e-01
      - 2.0207091789551529e-01
      - 9.8604947358638051e-01
      - 1.3093294205704548e-01
      - 1.0314747201091405e+00
      - 8.0645549752928689e-02
      - 1.2107142562482365e+00
      - -7.2615074488477427e-02
      - 2.2773752499616813e+00
      - -6.4691939920333130e-01
      - 5.5424761933934485e+00
      - -2.4067124202628816e+00
      - 6.3615227439702293e+00
      - -2.8693158919493236e+00
      - 6.5520798976731172e+00
      - -3.0246657736229920e+00
      - 5.5994443942424148e+00
      - -3.0860076888023555e+00
      - 5.6617526640672207e+00
      - -2.8972401400621028e+00
      - 1.9330582580881093e+00
      - -6.1817038221865495e-01
      - 1.0136263396050886e+00
      - 3.4049093069694736e-01
      - 8.1914312521187360e-01
      - 8.5768210477330342e-01
      - 7.8407189332933480e-01
      - 1.0097059988182833e+00
      - 8.1419263211756099e-01
      - 1.1742106325036996e+00
      - 8.8750866774118919e-01
      - 1.5717831860906442e+00
      - 1.1015624792229366e+00
      - 2.4284712325487612e+00
      - 1.0545738619964162e+00
      - 2.1199602687377159e+00
      - 9.0782262394837310e-01
      - 1.4980231222823404e+00
      - 8.3586493982415644e-01
      - 1.2300391231133199e+00
      - 8.1325937106366142e-01
      - 1.1231268787069042e+00
      - 8.1591422390288482e-01
      - 1.0347561474200397e+00
      - 8.0090674721372335e-01
      - 9.0055215956095525e-01
      - 8.2067109886008083e-01
      - 7.4974061370071898e-01
      - 1.0530543704532760e+00
      - 3.4130025213859616e-01
      - 2.4865234729411085e+00
      - -7.8046841726387106e-01
      - 5.4933507004091124e+00
      - -2.4363980185420506e+00
      - 6.6139887893905627e+00
      - -3.0836119042298047e+00
      - 5.6194092160792710e+00
      - -3.1256739411409020e+00
      - 5.5886562306055225e+00
      - -2.9430415618681218e+00
      - 2.9775299169239582e+00
      - -1.2366218406645526e+00
      - 1.3962202382101174e+00
      - -2.1043938545327845e-01
      - 1.0269280491694683e+00
      - 6.4616952544735984e-02
      - 1.0050859549354552e+00
      - 1.2167926481378745e-01
      - 9.1944516264762188e-01
      - 3.0646540494022567e-01
      - 7.9110671681398137e-01
      - 9.4920433899771972e-01
      - 8.9061043594186329e-01
      - 1.5649513468799803e+00
      - 8.3411804312822702e-01
      - 7.8368301684840824e-01
      - 8.9559056586429253e-01
      - 3.9551920046296385e-01
      - 8.6340144933007612e-01
      - 4.0452378420223056e-01
      - 8.1880709560738651e-01
      - 4.6576452915370681e-01
      - 7.7829977739567979e-01
      - 5.3458732052017399e-01
      - 7.7782084030638998e-01
      - 6.0051481029831988e-01
      - 7.7352801437899443e-01
      - 6.3256653902158411e-01
      - 8.4529366117305615e-01
      - 4.4872938381729593e-01
      - 1.3959298592040437e+00
      - -1.6674345503204885e-01
      - 3.3370489889567745e+00
      - -1.3277763397219657e+00
      - 5.8833125573136176e+00
      - -2.6783716974112908e+00
      - 5.8028123498987014e+00
      - -3.2788261597371862e+00
      - 5.5986645588459076e+00
      - -3.0241904614875579e+00
      - 4.2012096846322065e+00
      - -2.1050228713739711e+00
      - 3.6036703919103621e+00
      - -1.6892770153825711e+00
      - 2.7288915686147059e+00
      - -1.1563831451728814e+00
      - 2.5549134635704025e+00
      - -1.0067223261495417e+00
      - 1.1444070295818627e+00
      - -1.1957673135683675e-02
      - 8.3618223956761051e-01
      - 1.1384024338111287e+00
      - 7.9190702960216386e-01
      - 1.0776691644443985e+00
      - 1.2262149450881847e+00
      - -1.6704091992003321e-02
      - 2.6668621892613982e+00
      - -9.0338700378884396e-01
      - 2.5985251287253188e+00
      - -8.8254448387882334e-01
      - 2.5300318187484141e+00
      - -8.3074335805843791e-01
      - 2.1757809969887991e+00
      - -6.7569470392735798e-01
      - 1.9482651193278739e+00
      - -5.5783075054417675e-01
      - 1.6544181393412956e+00
      - -4.3510905609269163e-01
      - 1.6820149023065474e+00
      - -4.0716898739701340e-01
      - 2.4481039658573049e+00
      - -8.5409151550038764e-01
      - 3.5658912015544981e+00
      - -1.5007895650183496e+00
      - 6.3548992572863252e+00
      - -2.8522812321439748e+00
      - 5.7124997006147149e+00
      - -3.2545825281998435e+00
      - 6.1510973966085452e+00
      - -3.4103712086713558e+00
      - 6.2545928265538535e+00
      - -3.3460461545091005e+00
      - 7.2377852802635516e+00
      - -3.6039614334787697e+00
      - 6.2698079963393925e+00
      - -2.9937096377688199e+00
      - 2.2146674373352733e+00
      - -7.2882332674715578e-01
      - 8.5422908441720791e-01
      - 4.6581302201582186e-01
      - 8.8408481745678924e-01
      - 1.7080076339712364e+00
      - 8.6354430582197028e-01
      - 8.6945045483999139e-01
      - 1.2956158848250474e+00
      - -1.2789070118035591e-02
      - 1.5837873966685139e+00
      - -2.8732928970686056e-01
      - 1.7184509672654629e+00
      - -3.7077984526124597e-01
      - 1.6169632749064249e+00
      - -3.3663222723561526e-01
      - 1.5333507793150789e+00
      - -3.1857835725504507e-01
      - 1.6293909429034699e+00
      - -3.5455086114739887e-01
      - 2.4171230019598191e+00
      - -7.8872151807550062e-01
      - 5.6437105142195652e+00
      - -2.3117477631806360e+00
      - 6.8930202161210472e+00
      - -2.9018513128925179e+00
      - 7.1069421999979809e+00
      - -3.1853395738298147e+00
      - 6.8786241065044349e+00
      - -3.1113019231172938e+00
      - 5.5606491881629294e+00
      - -3.1936379084889439e+00
      - 5.7398921759941972e+00
      - -3.1364376634301432e+00
      - 5.5836056095167939e+00
      - -2.9850974678730924e+00
      - 3.5382054374608836e+00
      - -1.6736800511296157e+00
      - 2.1450061543674557e+00
      - -7.4665559542247539e-01
      - 1.0121407959001756e+00
      - 1.3869959142375154e-01
      - 7.8293616941704980e-01
      - 1.2294452327167316e+00
      - 1.1107805430524074e+00
      - 2.4354250465898932e+00
      - 9.4919176838384445e-01
      - 1.5262201494654568e+00
      - 8.4912335350738355e-01
      - 1.1741094665654328e+00
      - 8.1759452881490269e-01
      - 1.0743123323050188e+00
      - 7.9812784376504897e-01
      - 1.0014573523748314e+00
      - 7.7592166662766038e-01
      - 8.9758236317076945e-01
      - 7.7984059030527930e-01
      - 7.8164234737465976e-01
      - 8.4341960719263098e-01
      - 6.1215917084248017e-01
      - 1.4331869737781242e+00
      - -2.9056721110361016e-02
      - 5.0277035996225203e+00
      - -2.1063605520231379e+00
      - 6.7647197869468334e+00
      - -2.9210290995689538e+00
      - 7.2420575131455980e+00
      - -3.2793273351870340e+00
      - 6.9675165526968392e+00
      - -3.1360682829476771e+00
      - 5.5733859337479021e+00
      - -3.1310682587027179e+00
      - 5.4584384109942485e+00
      - -2.9817722589553806e+00
      - 3.6214459219333932e+00
      - -1.7658041845004664e+00
      - 1.5265285727582543e+00
      - -4.6935839972647458e-01
      - 1.0100985493816963e+00
      - 5.5479465902410437e-02
      - 7.9309500270016731e-01
      - 8.4965151113866422e-01
      - 9.3712334078000004e-01
      - 1.8909745776235489e+00
      - 8.6118155000419128e-01
      - 1.2140143714233043e+00
      - 8.5092999625119170e-01
      - 7.7671491504143320e-01
      - 8.5675645091968877e-01
      - 8.7106086242097203e-01
      - 7.7504363618147343e-01
      - 1.1583023134432155e+00
      - 7.9445487321864305e-01
      - 1.2269989588903356e+00
      - 7.9353852724446006e-01
      - 1.0364984588119837e+00
      - 8.2257353465025940e-01
      - 1.1729821227368011e+00
      - 7.7501817904289971e-01
      - 1.1233469187391727e+00
      - 1.0413931550010707e+00
      - 2.5557665447254085e-01
      - 3.2220015230655124e+00
      - -1.2408992141644810e+00
      - 6.4034543955786658e+00
      - -2.8885038913934240e+00
      - 7.1377025957313833e+00
      - -3.1982538905166726e+00
      - 7.1058650004403558e+00
      - -3.2770897033440187e+00
      - 5.4455654509178375e+00
      - -3.0380848136022727e+00
      - 4.7944555694063968e+00
      - -2.5264456679505241e+00
      - 1.7374589831367309e+00
      - -6.0946786992575253e-01
      - 9.7462563350799669e-01
      - 4.9933050733618277e-02
      - 7.9806922799719660e-01
      - 5.7805491210523063e-01
      - 8.9025036541580516e-01
      - 1.3851718030179905e+00
      - 8.1172686539905359e-01
      - 1.3101502152632962e+00
      - 8.7684206928805886e-01
      - 3.8291492986041203e-01
      - 1.4309191089032156e+00
      - -2.3613913547697507e-01
      - 1.3302265292312925e+00
      - -1.4640123286323048e-01
      - 6.8884918148782182e-01
      - 4.9939138847405273e-01
      - 7.5925704125466187e-01
      - 4.3997659028008906e-01
      - 1.1820062868352557e+00
      - -3.2067593137631918e-02
      - 8.7228611176404602e-01
      - 2.8317588287924955e-01
      - 6.7356873974806208e-01
      - 6.1079924705327826e-01
      - 1.1087987971245188e+00
      - -7.3646040822943149e-03
      - 3.3479439592086022e+00
      - -1.3659094091838635e+00
      - 5.4360916545261171e+00
      - -2.3665983354287965e+00
      - 6.3276632810895608e+00
      - -2.7850361855910934e+00
      - 6.7551454436057314e+00
      - -3.0687877235908707e+00
      - 5.6016748196780650e+00
      - -3.1202737742729281e+00
      - 4.0028597204989591e+00
      - -1.9673040584566475e+00
      - 1.7868813752152559e+00
      - -4.9583885103464737e-01
      - 8.7858656200089691e-01
      - 3.7798049257380945e-01
      - 8.2979842592454423e-01
      - 8.7610892622820391e-01
      - 8.1748205830803022e-01
      - 8.6446809409547420e-01
      - 7.4805866034343349e-01
      - 7.4004806620778407e-01
      - 9.4881104038398745e-01
      - 1.6655241304191798e-01
      - 2.1690897080559717e+00
      - -7.8823421615294564e-01
      - 1.6832574031188612e+00
      - -4.8083279591944578e-01
      - 7.0983128235700121e-01
      - 4.1658844663245775e-01
      - 7.8662495894024631e-01
      - 3.4788247068143924e-01
      - 1.5101254885109243e+00
      - -3.4665063603059282e-01
      - 8.9786290499141763e-01
      - 1.5821671303596083e-01
      - 6.7843980698890238e-01
      - 4.7030793856511061e-01
      - 1.2461656046970251e+00
      - -1.9278876110183457e-01
      - 3.1347540120842075e+00
      - -1.2430986797992438e+00
      - 4.7843707985867372e+00
      - -2.0852586791473082e+00
      - 5.8317496766136152e+00
      - -2.6013174075737351e+00
      - 6.0982083931637190e+00
      - -2.7646881749287751e+00
      - 4.7108226009996281e+00
      - -2.5722915395082513e+00
      - 4.6933880192727626e+00
      - -2.3777677953678191e+00
      - 1.7068593885708858e+00
      - -4.0666981322341167e-01
      - 9.7739206818284630e-01
      - 3.8538287114602310e-01
      - 8.1846008842867612e-01
      - 5.0290489396621119e-01
      - 8.6492536244979912e-01
      - 3.0650908079473344e-01
      - 7.0039937891151494e-01
      - 5.0951107385973438e-01
      - 8.8405282584104938e-01
      - 2.4015297898982629e-01
      - 1.5205793089637998e+00
      - -3.4140669001477836e-01
      - 1.3168937670664074e+00
      - -2.4855023749375765e-01
      - 7.0152676029755012e-01
      - 4.4577458765732436e-01
      - 7.8356377558321144e-01
      - 3.6409832983233537e-01
      - 1.1782569468412638e+00
      - -1.4017096581202429e-01
      - 8.4151930352207405e-01
      - 2.5339829948684739e-01
      - 7.0401674128005864e-01
      - 4.5226857905547035e-01
      - 1.2576879612541125e+00
      - -2.0556979236762155e-01
      - 2.8094964974744969e+00
      - -1.0498984522208492e+00
      - 2.9003462493728143e+00
      - -1.1303688764875053e+00
      - 3.0079749118412415e+00
      - -1.2447170435367263e+00
      - 5.3725971665236507e+00
      - -2.3811037791851586e+00
      - 4.1283553167233995e+00
      - -2.1785871606603173e+00
      - 5.1102375352432468e+00
      - -2.6554607393137837e+00
      - 2.1771955308559319e+00
      - -7.7411922702810465e-01
      - 1.1662867688877667e+00
      - -2.0139872271722082e-02
      - 1.1316547949863613e+00
      - 7.8163826905877903e-03
      - 9.3119275158148351e-01
      - 2.1528162182635663e-01
      - 7.3955083479099382e-01
      - 6.5505380955045289e-01
      - 7.7119307265980930e-01
      - 6.6150854393763769e-01
      - 8.0821814484368548e-01
      - 5.4287215682469914e-01
      - 8.2061868726396525e-01
      - 5.9216827557179452e-01
      - 7.7681690418415184e-01
      - 1.0293717814160324e+00
      - 7.7956699353631065e-01
      - 8.7806651004082037e-01
      - 8.3509744430712873e-01
      - 5.1979999792350140e-01
      - 7.5808559511974882e-01
      - 5.9705706928107427e-01
      - 7.2574969487687679e-01
      - 5.2220054217785505e-01
      - 1.0575064446565932e+00
      - -3.1344868757043490e-03
      - 1.5158381035478496e+00
      - -3.6653381792702583e-01
      - 2.4172642264167208e+00
      - -8.3795713459941146e-01
      - 3.6123844551725530e+00
      - -1.4858679755009276e+00
      - 5.6542247020488636e+00
      - -2.3921866048456084e+00
      - 4.2674690414864056e+00
      - -2.3164700881913651e+00
      - 4.2295443225691596e+00
      - -2.2710140875172011e+00
      - 3.5687960072319624e+00
      - -1.7631565978274335e+00
      - 2.2930181337489759e+00
      - -9.4491250828695772e-01
      - 1.5220700539270524e+00
      - -3.9198669760236970e-01
      - 9.9449203640659167e-01
      - 3.7584423093155739e-01
      - 8.6590462152971914e-01
      - 9.6007525983763564e-01
      - 8.5989151868558200e-01
      - 9.7421501123128007e-01
      - 8.0901278999966764e-01
      - 8.4596682640303056e-01
      - 8.3421726937561247e-01
      - 1.0073583402500255e+00
      - 8.2045443868807566e-01
      - 1.2529559932874026e+00
      - 8.6206053494535795e-01
      - 1.4156281702338342e+00
      - 8.4737650813430432e-01
      - 1.3267409803088817e+00
      - 8.2061908839347941e-01
      - 1.3445324463596813e+00
      - 7.7064032568870433e-01
      - 1.0117887341203768e+00
      - 7.9374568659442735e-01
      - 4.3069731176596332e-01
      - 1.1219773450218127e+00
      - 2.7619846985945936e-02
      - 2.2886298685626327e+00
      - -7.8238865736803054e-01
      - 4.7175634723383970e+00
      - -2.0755951252347904e+00
      - 5.3229337738421822e+00
      - -2.3794259868206069e+00
      - 3.9440108718869076e+00
      - -2.0114826445669856e+00
      - 4.2387895010147059e+00
      - -2.2381808657723146e+00
      - 4.6169405646526336e+00
      - -2.4499307632856442e+00
      - 4.5958750635127812e+00
      - -2.3891313934801612e+00
      - 3.2785657766680929e+00
      - -1.4371515937281130e+00
      - 1.5235262714909046e+00
      - -2.3479848860436006e-01
      - 1.0866771356706231e+00
      - 1.6735115097776684e-01
      - 9.6831450992113455e-01
      - 2.0063948483429014e-01
      - 9.2064819982105461e-01
      - 1.7077303763865578e-01
      - 9.0263930576429696e-01
      - 1.7557710777359595e-01
      - 9.6340297333738889e-01
      - 1.5931709105072545e-01
      - 9.7078940218796184e-01
      - 2.2067963903033685e-01
      - 8.4904494572543676e-01
      - 4.0175581319081738e-01
      - 8.2116049471495367e-01
      - 5.7712189031595884e-01
      - 9.0364327524652877e-01
      - 5.0176920096365540e-01
      - 9.4011622478890933e-01
      - 2.2631213211175910e-01
      - 1.2606848149312322e+00
      - -1.0326417749005165e-01
      - 2.8343532985313575e+00
      - -1.0256227012913490e+00
      - 4.4084928792016571e+00
      - -1.9727330916947559e+00
      - 4.5262171791922121e+00
      - -1.9495698672518234e+00
      - 2.5883063383338980e+00
      - -9.2685720273379846e-01
      - 3.6023300222244719e+00
      - -1.8527688468228585e+00
      - 4.3528130663925513e+00
      - -2.3103306035499784e+00
      - 4.3064741919129865e+00
      - -2.2467147607957170e+00
      - 4.4407843453555103e+00
      - -2.2702678452017868e+00
      - 3.8678779881193348e+00
      - -1.8473692957325316e+00
      - 3.2188718651636381e+00
      - -1.4500090463626563e+00
      - 2.7983398328619611e+00
      - -1.2142128768410310e+00
      - 2.8593665695628445e+00
      - -1.2580523549422773e+00
      - 2.8137685153715708e+00
      - -1.1999753305095933e+00
      - 2.7217571105968497e+00
      - -1.1630827840133677e+00
      - 2.5398805586386843e+00
      - -1.0615219048610183e+00
      - 2.2898171921465154e+00
      - -8.2295471878154247e-01
      - 1.7391158560613980e+00
      - -5.1445382663154504e-01
      - 1.9652214746052714e+00
      - -6.3092813441706086e-01
      - 2.2081464104753610e+00
      - -7.6973818075229794e-01
      - 2.4594049337703270e+00
      - -9.4042756629730040e-01
      - 2.9381370278738732e+00
      - -1.2293893950931576e+00
      - 3.4127080448477818e+00
      - -1.4753299033073906e+00
      - 3.4522081085049070e+00
      - -1.4385950806505405e+00
   output_scale:
      - 5.2631578947368418e-01
      - 4.9999999999999994e-01
      - 5.2631578947368418e-01
      - 4.9999999999999994e-01
   inv_output_scale:
      - 1.8999999999999999e+00
      - -9.4999999999999996e-01
      - 1.8999999999999999e+00
      - -9.4999999999999996e-01
   weights:
      -
         - -4.3731777829078191e-03
         - 4.8605654701967997e-03
         - 2.6183175514404070e-03
         - -9.0585507416518604e-04
         - -4.0048779526462080e-03
         - -4.0602911999891005e-03
         - 2.7840861479785420e-03
         - 4.5596309683600478e-03
         - 7.8045729411960944e-04
         - -7.0319440981769679e-04
         - -1.3186688009450772e-03
         - -1.2163053334580268e-03
         - 3.6787803366742050e-03
         - -2.7884025166718244e-03
         - 4.5092950653953413e-05
         - 1.6547243257948618e-03
         - -4.6034231506892811e-03
         - 5.2253270501730785e-03
         - -3.1066840400942081e-03
         - -9.8571592374105486e-04
         - -5.2670896551388399e-03
         - -4.4936821074885100e-04
         - 1.8357154626070717e-03
         - 1.4361671553672255e-03
         - 5.3676194244066579e-03
         - 4.7101644896991547e-03
         - 4.7778102370167157e-03
         - -1.3624804876245726e-03
         - -1.3704892050260848e-03
         - 1.6850200322028235e-03
         - 1.0494652710317518e-03
         - -5.1108654260687237e-03
         - 1.5961755216400959e-03
         - 2.7031279844784901e-03
         - 3.5860264027642056e-03
         - -1.6777611962717294e-03
         - -2.4447683861560728e-03
         - 9.9976955028588041e-04
         - 4.1492161655301519e-03
         - 6.1606694180010215e-03
         - -1.2156750259057494e-03
         - 2.3837953478243012e-03
         - 4.1087752595703386e-03
         - -1.4822407745398265e-03
         - 1.8469518227317001e-03
         - 3.7382803798047463e-03
         - 3.8356441875259709e-03
         - -3.6681777281071136e-03
         - -2.0644256231865136e-03
         - -3.6150611362276088e-03
         - -4.0845550039378476e-03
         - 1.8419397474177526e-03
         - -3.3218216646778158e-03
         - -1.4498650413300022e-03
         - -4.7526930054590426e-03
         - 2.1367330170356620e-03
         - 4.9690803169608810e-03
         - 6.3054852857161571e-04
         - -4.1519685985941436e-04
         - 3.4898450892062406e-04
         - 4.7988974896441862e-03
         - -2.9986446853321098e-04
         - 9.0762786718334243e-04
         - -3.9258898005405359e-03
         - -4.1723682174777399e-03
         - 3.9007831235782133e-03
         - 2.4503323905417933e-03
         - 1.1419805689957508e-03
         - 8.7796203517563447e-04
         - -3.1899847162939116e-03
         - 3.3813078823197325e-04
         - 7.9042348727149144e-04
         - 1.7981025541443422e-03
         - -1.7579441625750186e-03
         - 1.8577101957841860e-03
         - 3.2115873439459235e-03
         - -2.6517827464471472e-03
         - -4.5959111993502328e-03
         - -4.1539833624018724e-03
         - 2.7477848367980931e-03
         - -5.1117571072227972e-03
         - -4.6867725327010668e-04
         - 2.7330388540057720e-03
         - -4.0183580146685846e-03
         - 2.6670209591331132e-03
         - -1.3843109156155035e-03
         - -1.9928776130383060e-03
         - -2.4673327738470720e-03
         - 1.5108106586000970e-03
         - 2.6030067610836385e-03
         - -2.4125450879544448e-03
         - 3.5993267448205715e-03
         - -3.8580150478087498e-03
         - -8.4769375947280567e-04
         - -5.3249001209277440e-03
         - -1.0561213550144483e-03
         - 2.5970933380276558e-03
         - 3.9351950312181555e-03
         - 3.1089709291863259e-03
         - 1.3704086888639516e-03
         - 2.5429760135591239e-04
         - 3.6260549253080802e-03
         - 1.3880688851271785e-04
         - 2.1724456392672952e-03
         - 4.4269000586573317e-03
         - -6.7079729207998352e-03
         - -3.4459177826083455e-03
         - -5.7714630687397562e-03
         - 1.7077581085327687e-03
         - 2.6885684641053094e-03
         - 1.2109830006742417e-06
         - -8.1094527541628782e-05
         - -1.3415095846481542e-03
         - -1.0197414195322364e-04
         - 3.8054192664883236e-03
         - 3.1038279676482584e-03
         - 6.1809355160926697e-03
         - 6.7514204612602856e-04
         - -5.7194522359145655e-03
         - 1.5997168143185442e-03
         - 5.1949295733158870e-03
         - 6.9938633789668782e-04
         - 2.3096194478375926e-05
         - -5.6913965960547382e-03
         - 2.4753925725670180e-03
         - -2.2389390974528749e-03
         - 6.4991036393562335e-04
         - 4.0429230347085437e-03
         - 5.0939871108121081e-03
         - 1.7701244391523116e-03
         - 7.1126046999577929e-04
         - -2.9736765110219853e-03
         - -4.8277856445255261e-03
         - 5.3276155624823235e-04
         - 2.2479162132404253e-03
         - 1.2225867297803949e-04
         - 1.0649735089028071e-03
         - -2.9118420690322070e-03
         - -1.4417771365914708e-03
         - 1.5844234239207995e-03
         - 2.6604469974934038e-03
         - 1.9103727474327867e-03
         - -2.2895230112789655e-03
         - -6.6236722857065348e-04
         - -8.4290041152313702e-04
         - -2.7374946299417568e-03
         - 2.8176020365315575e-03
         - -2.6226956094553538e-03
         - -1.4588322159418752e-03
         - -3.1912098434353541e-03
         - -2.8731098680537630e-03
         - 2.4120732545908218e-03
         - 3.3208713105502561e-03
         - -5.5155192478855879e-03
         - 5.7144706688572753e-03
         - 1.3161361298157938e-03
         - 2.8661732117399043e-03
         - -3.1212385661488753e-03
         - -4.0153952744763216e-03
         - 2.0453977585566437e-03
         - 2.3179151504006167e-03
         - 1.4801488330494091e-03
         - 1.5622746084469616e-03
         - -5.9670575651443270e-04
         - -2.8542293421380104e-03
         - -4.7840338892625603e-03
         - -5.4366227058049877e-03
         - 1.9025265846477472e-03
         - -2.2781345359508165e-03
         - 6.6244872320285891e-03
         - -2.6254878678181669e-03
         - -4.2767156449930394e-03
         - 2.0284745371639493e-03
         - 3.0770031030819744e-03
         - -2.3257949062400183e-03
         - -3.8104451794835495e-03
         - -1.9038575103158316e-03
         - 2.4661578158072660e-03
         - 2.6108763846912240e-03
         - -6.9432110201101769e-03
         - 6.8491789402562583e-03
         - 4.1256180377547205e-03
         - 3.3082311299300060e-03
         - 9.1601637688028042e-04
         - 1.8821506978102930e-03
         - -5.3064104606444749e-03
         - 4.3619588013053849e-03
         - 7.7124409863678269e-04
         - -2.4319733979545261e-03
         - -3.2055834661896933e-03
         - -6.9677068027618584e-04
         - -7.4968426055879061e-04
         - 8.3266490626430524e-03
         - -3.6212618682496308e-03
         - 4.0398661255891240e-04
         - 2.8018177887384117e-03
         - 7.7156780836456519e-04
         - -3.1548483122514795e-04
         - -7.9143836032303421e-04
         - -7.2900658566078444e-04
         - -3.1963418650181297e-03
         - -4.2849680874953878e-03
         - 2.2320739812912425e-03
         - -1.3654046998595060e-03
         - -1.7252508156310757e-03
         - -5.5480378198743512e-03
         - 3.0073604534053052e-03
         - 1.1348181142413801e-03
         - 1.0918501153397773e-03
         - -3.0578984928255051e-03
         - 5.2272937420634984e-03
         - 4.0539206362268610e-03
         - -1.9630107607409098e-03
         - -1.8403311519602963e-03
         - -1.9757702734943382e-03
         - 9.4702448741839718e-04
         - -1.9301857522787636e-03
         - -2.1274664509010970e-03
         - 2.8000963934565089e-03
         - -4.6305700464604705e-03
         - -3.5627356632150914e-03
         - 2.8847392428914230e-03
         - -3.1251501577601848e-03
         - -7.0107354060093092e-03
         - 2.6056024701230809e-03
         - 3.5340091674212260e-03
         - 2.3201859663237417e-03
         - 6.2896228391259570e-03
         - 1.2441569749091020e-03
         - -2.6484968275560872e-03
         - 2.2422014292991571e-03
         - 4.4230454912344156e-03
         - 3.8008822561444635e-03
         - -5.3973898024396705e-04
         - 3.0123419063312084e-03
         - -8.3992172719222211e-04
         - -1.5878277819887812e-03
         - -3.0111425957692613e-03
         - -6.5285961873222777e-03
         - -1.5786267219785185e-03
         - -3.3684233292944434e-03
         - -1.2746533017018031e-04
         - 3.3635060588163589e-03
         - -1.4766593523088190e-03
         - -1.3119887996509618e-03
         - -5.4956297757444037e-03
         - 2.6478461035913219e-03
         - -4.1598007047755165e-03
         - 1.7645645090117741e-03
         - 2.1878410077012553e-03
         - -5.3345522784301515e-03
         - -4.5455825055476899e-03
         - -2.5793778910924922e-03
         - -2.1442180586285411e-04
         - 1.9167733694989185e-03
         - 5.4144202164098576e-03
         - 2.7385413650565064e-03
         - -4.0493903791132694e-03
         - 1.7741030164374130e-03
         - -1.2434746249067498e-04
         - 8.5916516797216607e-04
         - 1.4262610097593030e-03
         - -3.0079187053898794e-03
         - 1.5893251232514823e-03
         - -2.4453960496001207e-03
         - 2.9369463850416585e-03
         - -2.7093639562754969e-03
         - -2.4998671277114077e-03
         - -2.4582030236569175e-03
         - 7.5037166423446936e-03
         - -5.3391478034151797e-03
         - -1.1500623933304926e-03
         - -3.4216979711901492e-04
         - -5.1726813785654192e-04
         - 3.4689175413219328e-03
         - 8.3203512058051645e-04
         - -3.2090726412058103e-04
         - 1.4240777326056753e-03
         - -1.4021914632077737e-03
         - -6.1746368734486128e-03
         - 8.4206403372050014e-04
         - 2.4300303366763556e-04
         - -1.5367261826290695e-04
         - 3.0537676063335248e-03
         - 4.5302095245881597e-03
         - 5.9107044646863373e-04
         - 3.4899926167420115e-03
         - 2.7226250118763111e-04
         - -1.3769956194812257e-05
         - 9.2099979623010738e-04
         - -2.7252953837241222e-04
         - 3.1551915521411140e-03
         - 7.3423819012291835e-03
         - -4.3119729270411981e-04
         - -4.1778287311614113e-04
         - 3.2247322686594069e-03
         - -2.7172863542511234e-03
         - -5.1033601650989522e-03
         - 6.2061619774684933e-03
         - -1.7839677819102163e-03
         - -5.2433253054526858e-03
         - -2.1306505780484498e-03
         - -1.7045702272806408e-03
         - -4.6255035666607248e-04
         - 2.3768931090805221e-03
         - -5.2589672247558570e-03
         - 1.4650150754113122e-04
         - -6.0861889517203642e-03
         - -5.2399874548506638e-03
         - 9.6713224138818743e-04
         - -5.2938097254138074e-04
         - -6.5131549150881680e-04
         - 2.3855610418194980e-03
         - 2.4964588962236994e-03
         - 3.4123692268753176e-04
         - -2.2403081036187354e-03
         - 2.7094749041479886e-03
         - -2.7658801415367915e-03
         - -5.4693904977410022e-03
         - 5.9025159703593108e-04
         - -2.5581955022177302e-03
         - -3.5270613835295052e-03
         - 2.4289194101926341e-03
         - -3.2885886487661591e-03
         - -1.3704198731292905e-03
         - 4.6881669584232424e-04
         - 1.4957575894019204e-03
         - 4.5517736138835276e-03
         - 4.9472428799052981e-03
         - -1.7482186891397311e-03
         - 1.5703317219719788e-03
         - 1.1886683621394900e-03
         - -8.5033304450240306e-04
         - -3.4541189606925771e-03
         - -3.4189808861063903e-05
         - -1.8573750820452717e-03
         - 1.0804452570595117e-03
         - 2.2871486843980371e-03
         - -5.6775281496938635e-03
         - 7.4525761927821870e-04
         - -3.2776251612674457e-03
         - 1.3240984158187853e-03
         - 2.4607708614091347e-03
         - -1.9430679113673704e-03
         - 2.8607217358413571e-03
         - 1.4269480179569848e-03
         - -3.3812286128614391e-03
         - -3.9570270137150596e-03
         - 5.0887536931418197e-03
         - 1.7208453678408196e-03
         - 2.3641664560437937e-04
         - -4.8162658015937238e-03
         - -4.1974965708781184e-03
         - -6.1029324033862612e-03
         - 2.9196211916276684e-03
         - 3.8390442621624209e-03
         - -1.9820169347723312e-03
         - -3.6897846830005011e-04
         - -3.5612163674991811e-03
         - 1.2388248000903830e-03
         - 1.5185621890833661e-03
         - 4.4169782793202167e-04
         - 4.1224517488668167e-03
         - -8.0662014913036189e-04
         - -1.0951982786242516e-03
         - 4.5010616298406985e-03
         - -1.7589219722591513e-03
         - 4.0463991353368667e-03
         - -1.8289054746114570e-04
         - 1.8039614976929010e-03
         - -3.7523641739034747e-03
         - 1.6412888757610699e-03
         - 3.6096671122791356e-03
         - 5.8224071517806149e-03
         - 1.8009366817286625e-04
         - 9.0173151091630776e-04
         - 1.3897345628128902e-03
         - 1.6195294941905713e-03
         - 1.4518045594535060e-03
         - -3.8197999555902042e-03
         - 4.3573675230048634e-03
         - 4.9840846663147488e-03
         - 5.2939864420441251e-04
         - -5.0483884556898773e-03
         - -4.1530747810414525e-03
         - -4.9493348890999574e-03
         - 4.6470045371727600e-03
         - -1.4952430617630930e-03
         - 2.8747890866501931e-03
         - 2.6656792834025477e-03
         - -2.7687840416386247e-03
         - 1.7741147026239877e-03
         - -2.6407137235704358e-04
         - 3.3121088120311925e-03
         - -6.1347257501065562e-04
         - -2.0924126717533618e-03
         - 1.5531957287811309e-04
         - -3.8764125147008120e-03
         - 2.9629433539358489e-03
         - 1.9943548276429753e-03
         - -5.2860069219827378e-03
         - 5.5091258685101350e-04
         - 4.7474663750944847e-03
         - 2.8857664723052197e-04
         - 4.6870815902674686e-03
         - -7.3532561505861632e-03
         - -3.6422693409545255e-03
         - -7.5383457112980952e-03
         - -5.4690391227801448e-03
         - 6.5635128003872518e-04
         - 1.4219159822214591e-03
         - 4.3207012021440087e-03
         - 3.8660040233731165e-04
         - -2.7329503071173646e-03
         - -2.3788405034313708e-04
         - 2.5640341724453052e-03
         - 5.1881862803807169e-03
         - -3.3147182175350424e-03
         - 2.3989128225584719e-03
         - -3.0825874726726939e-03
         - -9.8934708040659936e-04
         - -2.0857732273766787e-03
         - -3.7006402782081480e-04
         - -2.3255864976011948e-03
         - 1.9233645227166910e-04
         - -3.7311139594969111e-05
         - -4.5998573581887206e-03
         - 6.1974797482429646e-03
         - -6.8294268430597383e-04
         - 3.9077714131864003e-04
         - -3.0907685800127039e-03
         - -1.1744579447993226e-03
         - 2.2652587111345293e-03
         - -3.8306972711678882e-03
         - 1.7976966584399239e-04
         - -9.7087444600674926e-04
         - -5.2578418629702986e-03
         - -1.7943317363323650e-03
         - -8.4589470669918492e-03
         - -7.6554111934160653e-03
         - -3.7267528447424503e-03
         - 4.5981605374574332e-03
         - 2.0443283348518639e-03
         - -2.5062848701624947e-03
         - -3.3239965317919725e-03
         - 8.7518000018315008e-04
         - -5.9172514920067534e-04
         - -3.4897358494999737e-03
         - 1.6071601140374338e-03
         - -5.4334054269656309e-03
         - -4.6687373141827910e-03
         - -2.1561125510086605e-03
         - 1.3843520656890633e-03
         - -4.0777430220672447e-03
         - 2.3139236018551525e-04
         - -3.0322359474784098e-03
         - -6.1673497968409300e-03
         - -1.9556782487789612e-03
         - 1.5433734105987048e-03
         - 7.0754394614885941e-03
         - -3.2519661784304100e-03
         - 1.0688198794711070e-03
         - -3.1420798174820624e-03
         - 2.1798504117190062e-03
         - 3.1890695431404715e-03
         - -3.1716490004365981e-03
         - -3.1575484187288450e-03
         - -3.3554878035680865e-03
         - 1.2801548954983570e-03
         - 2.5318774136450432e-03
         - -4.3502498752342449e-03
         - 2.4883085669361680e-03
         - -1.6298774925258962e-03
         - 4.2355315338577660e-03
         - -5.9425159020537873e-03
         - -2.5004237226947581e-03
         - -4.6117551325031896e-04
         - 7.0990941879903006e-03
         - 4.0017713489787585e-03
         - -4.2218176542451850e-03
         - 6.8493340118462535e-03
         - 3.1922520879911587e-03
         - 3.6034773224024475e-03
         - 5.1516570288242072e-04
         - -3.1086397138869767e-03
         - -5.7073774732905756e-04
         - 1.0284509022711111e-03
         - -7.7623676410309376e-04
         - -1.7685905806636810e-03
         - 3.2249707074467953e-03
         - 2.6827444281820162e-03
         - 5.1732501251941217e-04
         - 7.2279772614522756e-03
         - -4.1645433551172296e-03
         - -3.0032183434885041e-04
         - 1.7540732989912793e-03
         - -3.5769587494446711e-03
         - 7.6871259054171065e-04
         - 5.3275656518508340e-03
         - 1.6749994013061146e-03
         - -4.5089216950544237e-03
         - -3.9424407563797403e-03
         - -1.4327791484328380e-03
         - -4.1625749264361644e-03
         - 6.4255084777740832e-03
         - -5.5556252092243564e-03
         - -2.8054232023973493e-03
         - -4.3690837883265223e-03
         - 3.0044595906086359e-03
         - 1.0780984066676594e-03
         - 7.7427530311576637e-05
         - 4.3622020569201924e-03
         - 5.5697102202040905e-03
         - -2.9266673868035211e-03
         - 6.9766959813629247e-03
         - 9.0002595532660632e-03
         - 2.6375804758890387e-03
         - -7.4309366756800362e-03
         - -3.6988113242706773e-03
         - -5.5046465380422863e-03
         - 4.3241269026324984e-04
         - -6.0617919472958160e-03
         - 1.2718044486999995e-03
         - -7.5836123090867336e-03
         - -4.7989638020330969e-03
         - -9.6871819552710799e-04
         - 4.1345044107849943e-03
         - 8.8203192426111795e-03
         - 1.3007811978565163e-03
         - -5.5473771546337963e-03
         - -2.0842848446872425e-03
         - 5.6724523203597350e-03
         - -5.7771110128955914e-03
         - 8.8777768810835227e-04
         - 4.5447978021468894e-03
         - 7.0594241948281858e-04
         - -5.8288833184065338e-03
         - -4.3509937212608959e-04
         - -6.2425863073484215e-03
         - -3.8488787934655446e-03
         - 1.2683597934748036e-03
         - 7.7144404069510340e-03
         - -8.5591975631372260e-04
         - -2.1728807278053840e-03
         - 4.1414766570943701e-03
         - -3.5911731938795808e-04
         - -4.4600733118019438e-03
         - -5.5394562677897113e-03
         - -2.2803681182632096e-03
         - 3.9402422351220677e-03
         - -1.7865283236339119e-03
         - 1.9796948861883104e-03
         - 5.3641552143867521e-03
         - -2.3884890178945779e-03
         - 1.2007732120092669e-03
         - -2.7217050042436003e-03
         - -4.1816008143014706e-03
         - 1.2386249335960642e-03
         - 1.6845121127433626e-03
         - 2.2722445717923080e-03
         - 9.5094497536131147e-04
         - -3.2006955393397156e-03
         - 4.7109334469818060e-04
         - 4.3008650144443347e-03
         - 1.1399301399643428e-03
         - 1.1935060803504734e-03
         - 3.1257936454018296e-03
         - -3.4590032920604695e-03
         - 3.3642690916200601e-03
         - 4.6400174067495756e-03
         - -3.0781641385258796e-03
         - 5.5232154805802576e-03
         - -4.7075728138064529e-03
         - 2.0483588440663213e-03
         - 2.1149809080200707e-04
         - 4.2632550597459899e-03
         - -2.4763912017280940e-03
         - 1.0524185387850422e-03
         - 3.5233203719163158e-03
         - -4.7531524810665018e-03
         - 6.3032391763968324e-03
         - 9.9728429850329779e-04
         - 7.3198753650234247e-04
         - -7.4738719981532371e-03
         - 4.0575671305072523e-03
         - -4.2380553341699280e-03
         - 2.3944258059166155e-03
         - 3.6247044854587074e-03
         - -2.0670818154237252e-03
         - -3.8907106156769746e-03
         - 3.0036673220922433e-03
         - 2.5995152458475833e-03
         - 8.4634513821334606e-03
         - -1.8432221209451129e-03
         - 3.4829987684071068e-03
         - 6.8786381502996792e-04
         - 7.0366535280043233e-04
         - -7.1338914543086157e-03
         - 7.8528909124149313e-03
         - -2.4688324184650636e-03
         - 2.8103475461744463e-03
         - 2.4284659386639609e-04
         - -7.1198764449377245e-04
         - -7.4831099696728272e-03
         - 1.6449533722769148e-04
         - 1.0357130933278391e-03
         - 1.7396054444675148e-03
         - -4.9791198232311843e-03
         - -3.9995993497909214e-03
         - -7.8047980229629596e-04
         - 6.6932349024843739e-03
         - -2.8383231623350584e-03
         - 3.5901122644432090e-03
         - 1.6699677814829257e-03
         - 4.5896527979686665e-03
         - 6.2277848999142136e-03
         - 6.6348173462005286e-03
         - -2.9653468602868879e-03
         - -3.8430217067612002e-03
         - -3.9862387482405827e-04
         - 3.7326548171586929e-03
         - -1.5375275561764681e-03
         - 7.7494548461051749e-04
         - 2.9251763945628784e-04
         - -4.7868466049909913e-03
         - 2.1310647058929567e-03
         - -1.4252766502793437e-03
         - 2.4193639395818584e-03
         - -8.3761222673086214e-05
         - 2.9175945634055938e-03
         - 5.0079282949487538e-03
         - -2.1152397700678872e-03
         - -2.1351872896857031e-03
         - 5.7507072788437951e-04
         - 6.8566759888262210e-03
         - -2.2999576338521587e-03
         - 2.9743610586784340e-04
         - 1.7987721590805737e-03
         - -4.6605571460619014e-03
         - -4.6653010138962211e-03
         - 5.8144087739936921e-03
         - 6.3587054103449760e-03
         - 4.6868610630431875e-03
         - 4.3416020651728029e-03
         - -2.8364989430127845e-04
         - 1.7045349410531819e-03
         - -4.7635070145918522e-03
         - -6.9216108988998199e-03
         - -1.2151321373444592e-03
         - -4.8214866116734149e-03
         - -5.5121381414957480e-03
         - -2.8580133893892560e-03
         - -2.0467013780774133e-03
         - -6.6991491851406586e-03
         - 1.3142570316298683e-03
         - 2.6145923210027862e-03
         - 1.8929058039582989e-03
         - 1.9565200734165161e-03
         - -3.7060613884298986e-03
         - 4.4526994197618816e-03
         - -5.5012358081831785e-03
         - 2.2613080811638175e-03
         - -2.8696699500735490e-03
         - 2.6923872131860618e-03
         - -1.2368618414415082e-03
         - -5.5980698922959652e-03
         - -2.2128342843789933e-03
         - 8.9438433561259134e-04
         - 1.7538479194966869e-03
         - 8.3930380652535216e-04
         - -4.8824247394278824e-03
         - 3.0263581935287822e-03
         - 7.1551570365156617e-04
         - 5.4731171228523143e-04
         - -1.4174068804940964e-03
         - 7.0234341772823841e-04
         - 5.3135806818991043e-04
         - 3.7737065425155788e-03
         - -2.3083020849324360e-03
         - 3.6874169073365101e-04
         - 4.0620491102154469e-03
         - -1.8228877356003246e-03
         - 7.6042292377050203e-03
         - -4.5283174530570377e-03
         - -1.3890170837537190e-03
         - 2.8471926747773630e-03
         - 3.1038056438167185e-03
         - -8.0472858168163515e-04
         - -4.9471642180147733e-03
         - -1.0239142296863382e-03
         - 3.3870647655851261e-03
         - -2.0599462141128034e-03
         - 7.9247947937908444e-03
         - 9.2596663424923632e-04
         - -8.1935215580553392e-04
         - 1.7010027227600426e-03
         - -3.2719978080292828e-03
         - -3.7858956846388266e-04
         - 4.8122466515294225e-03
         - 3.8946684459091208e-03
         - -2.5154431972911461e-03
         - -1.5394595741216022e-03
         - 1.3964384827717033e-03
         - 1.2856296937673768e-03
         - -2.6588327254775798e-03
         - -3.4355761494755809e-03
         - 3.9184721183866669e-03
         - -1.3133249459185584e-03
         - 2.7340595436421439e-03
         - 2.9223180976663352e-03
         - -7.9297795880937342e-04
         - 9.5626497559120642e-04
         - -1.6587064184430652e-03
         - -1.7865718391926564e-03
         - -3.9228711619352114e-03
         - 1.5888216024451673e-03
         - 2.7357771065600433e-03
         - -2.7533100333165064e-03
         - -1.1832701454701263e-03
         - -1.5504724061473523e-03
         - -3.9043886653229135e-03
         - -2.1328651723187017e-03
         - -7.7643198787888618e-04
         - 2.5432374230253086e-03
         - -7.0874810116384112e-04
         - -6.7438847512733759e-04
         - 4.9428496140164124e-04
         - -1.3696654818111547e-03
         - 4.2023609580472288e-03
         - -3.0634258555687238e-03
         - -1.3545270365497911e-03
         - -3.7631200201419628e-03
         - 2.8217881559375177e-03
         - -6.1238835567755339e-05
         - 2.4688411177558982e-03
         - 1.3001770229340050e-03
         - 7.9505590961674393e-04
         - -3.2793570702822818e-03
         - 2.9651731769689297e-03
         - 5.3221696499789991e-04
         - -2.0370329510710885e-03
         - -2.3397621525861399e-03
         - 2.9148988845775193e-03
         - 4.0490018950872933e-03
         - 2.1046837585559437e-03
         - 8.1073696748106190e-04
         - 7.4981067764647979e-04
         - -2.0787627126728492e-03
         - 9.4846521181213717e-04
         - 1.2457961989136368e-03
         - 2.9894258426948128e-03
         - -3.4968553422240790e-03
         - -1.0874001865237778e-03
         - 3.4147534086673989e-03
         - -1.9107777439169452e-03
         - -4.6197555348021623e-03
         - -3.6472239452079395e-03
         - 3.9177844347708770e-03
         - -1.6105779688071083e-03
         - 9.3677191490527381e-04
         - 4.9719781926480262e-03
         - -2.1792433488396412e-03
         - -1.8800893376986958e-03
         - 2.8896666357278353e-03
         - 4.1260354105893612e-03
         - -2.4760107166391159e-03
         - -1.1733663051685175e-03
         - -7.4965678779170407e-04
         - -2.1731624923079815e-03
         - -1.2512013943030366e-03
         - 2.0279780128195286e-03
         - 4.0828247489947626e-03
         - -2.4533560375392689e-03
         - -2.3467014226398121e-03
         - 3.0269323054885251e-03
         - 2.2622794771265001e-03
         - -2.9185726417594563e-04
         - 1.6199325331264078e-04
         - -1.5436118258749698e-03
         - 2.3730836080826873e-03
         - 2.5507513993737459e-03
         - 8.6711044853330873e-04
         - -4.8935080488257026e-03
         - -2.3770281442351197e-03
         - -2.8499274007313962e-04
         - 3.2317652531293709e-03
         - -1.4845688886161982e-04
         - 1.1891319103174371e-03
         - 3.9107158437117397e-03
         - 2.6702623150637685e-04
         - 3.9402177145282016e-03
         - 2.1712394671150066e-03
         - -4.6215942941802432e-03
         - -3.9366793497908580e-03
         - -5.1761207306116419e-04
         - -1.0461939208971363e-03
         - -4.2938181412999843e-03
         - 1.1516824257752215e-03
         - -3.6728579781373240e-03
         - 1.6159185109973031e-03
         - -3.3323048286879918e-03
         - -1.8284674733404964e-03
         - 4.5788972815321554e-03
         - -5.6597587721907835e-03
         - 2.3222631049723851e-03
         - -3.6304455537996259e-03
         - -1.6460025363540843e-03
         - -5.0323950636517040e-03
         - -2.9620773672504714e-03
         - 2.4027890838434519e-03
         - -3.4784614576389545e-03
         - 5.9869022494867495e-04
         - -4.0771579304839378e-03
         - -3.4086455317534005e-03
         - -3.4600857091695034e-03
         - 2.8557892175289997e-03
         - -2.5928826124043446e-03
         - -2.1643087643356878e-03
         - -7.9728738139394674e-04
         - -2.4359310924555689e-03
         - -4.1369968519569290e-03
         - -4.6053436013555916e-03
         - -2.7394428810580034e-03
         - -4.0316428732333990e-03
         - 3.0070656186373490e-03
         - -4.2355276018596578e-03
         - -4.5342851683549306e-03
         - 3.3637436640452582e-03
         - 2.8292833956634674e-03
         - 1.4834175500087108e-03
         - 2.3326743177634977e-03
         - 4.0142856913448757e-03
         - 3.7552088651340411e-03
         - 8.2944575136542588e-04
         - 8.5817715840374737e-04
         - 1.5485481913777377e-03
         - -3.9687829594539960e-03
         - -2.9754658727177007e-03
         - -3.9544936681425143e-03
         - 1.0861949495574014e-03
         - -1.0111028276137558e-03
         - -3.2637630881018850e-03
         - 1.3774278429883769e-03
         - 2.1699347429853400e-03
         - 2.1296198171930607e-03
         - 1.4790799521710726e-03
         - 1.9321929184797978e-03
         - -8.8558386491680648e-04
         - 1.5696809617750369e-03
         - -1.4884879295740678e-03
         - 2.1572692591836844e-03
         - 3.1419993683192413e-03
         - -1.8836763161482620e-03
         - -3.6164231460799836e-04
         - 6.2445884913020153e-04
         - 3.9088355063140023e-03
         - -3.5065539386300144e-03
         - -2.5725609642249067e-03
         - 6.3880076391135542e-04
         - 5.1199060085096474e-03
         - 2.7049611244414663e-03
         - -3.7267165490438869e-03
         - 3.2336588261925908e-03
         - -3.5093968251984908e-03
         - -2.5987951341967328e-03
         - -4.8087825567624618e-03
         - 4.3027453621763464e-03
         - 1.5972156292073398e-03
         - 2.0018081941882901e-04
         - -2.1239504095801253e-03
         - 3.8527279563421368e-03
         - 1.2322867409978535e-03
         - 2.8860434309856799e-03
         - 4.7278983335750603e-03
         - -2.4907223054336042e-04
         - -2.1216796599009954e-03
         - -3.4776190367460484e-03
         - 6.1877071378522172e-03
         - 2.7561461202759365e-03
         - -5.2730627098236333e-03
         - -1.4807751268883223e-03
         - 4.3550409295953271e-03
         - -2.4863029633144219e-03
         - -4.9372358118251530e-03
         - -2.1016616612353017e-03
         - 5.9213236533616138e-04
         - -3.4241899986960193e-03
         - -2.8376251550543989e-03
         - -4.1502777822484387e-03
         - -2.0229915446516038e-03
         - 3.5773799260105845e-03
         - 2.3496866794438897e-03
         - -2.3413818696432554e-03
         - -2.7250654024823639e-03
         - -1.8142199119868486e-03
         - -1.3080938530107074e-03
         - -2.7895026995745993e-03
         - -1.0872867100552864e-04
         - 5.6764628392419868e-03
         - -4.4948215513707221e-03
         - 2.6802328062959283e-03
         - 1.8768525337319879e-03
         - 1.5618596578655625e-03
         - -3.0835496053536423e-03
         - -2.0440232113724840e-03
         - 1.5801948272399463e-03
         - 2.5188107567508195e-04
         - 8.6931281365753665e-04
         - 2.2404080679927262e-03
         - -3.9169233215001037e-04
         - -1.7111665012562768e-03
         - -1.8100304614584166e-03
         - -7.3971520769689869e-04
         - -3.5410130705238528e-03
         - 1.1192715267252982e-03
         - 5.1433464127430620e-03
         - -1.3898055426013929e-03
         - -7.5912747741837270e-04
         - 1.2594567032001036e-03
         - -8.7652133579318959e-04
         - 8.1200303935522952e-04
         - -4.4488406584443249e-04
         - -5.3189995720331219e-03
         - -6.4403726470279579e-03
         - -5.2952788607697233e-03
         - -4.5514751563302709e-03
         - -2.0896827315498080e-03
         - 5.0263438459391277e-03
         - 2.0410450970004342e-03
         - -5.8368166430565246e-03
         - 3.7800437670547390e-03
         - 5.2116133332930255e-03
         - 2.8629638556188775e-03
         - -3.2379309327578935e-03
         - -2.6445817306162008e-03
         - 1.4092903393997241e-03
         - -4.6859731568280241e-03
         - 5.1419568918681954e-04
         - -5.3995232322758000e-03
         - -7.7700481768937131e-03
         - 1.9140009759790503e-03
         - 3.3505018767061162e-03
         - -1.4645484873483656e-03
         - 2.4262880749533018e-03
         - -2.1643760402719849e-03
         - -5.7092319012737053e-03
         - -2.4165219572715559e-04
         - -6.3261764258054519e-03
         - 4.7134443459429303e-03
         - -2.0619831478938208e-03
         - 3.3183050305611145e-03
         - -2.6076913787279874e-03
         - 4.0419478443152667e-03
         - -6.3225226570980753e-03
         - 1.3106307955532961e-03
         - -2.7964192249385866e-04
         - -3.7552364072345958e-03
         - 1.0888700608822188e-03
         - -5.0889238062459949e-03
         - 1.5740870354765560e-03
         - -3.8595876626991528e-03
         - -2.7273951121638187e-03
         - -4.5807181784471383e-03
         - -3.2090055410675103e-03
         - -1.2235640379045251e-03
         - 1.7244196434230497e-04
         - -5.3868117644850855e-03
         - -7.3803240397053368e-04
         - -1.7068820368448519e-03
         - 8.0479515432885871e-03
         - 1.1745679319387586e-03
         - 1.6462569025199241e-03
         - -6.3134048216099406e-03
         - -2.1853534866015660e-03
         - -1.9847838009179157e-03
         - -1.7606011670632544e-03
         - -3.6813736057308816e-03
         - 2.2538797956774817e-04
         - 4.4170866624490242e-03
         - 5.7785705445505026e-04
         - 6.6941303163121505e-03
         - 5.8614415269081354e-03
         - 4.5130109680569432e-03
         - -5.9527524550158336e-03
         - 1.5667238935056875e-03
         - 1.0769888270799751e-03
         - 3.3246694984600243e-03
         - -2.8624268037182273e-03
         - -3.9616146024046353e-03
         - 3.1738151910530427e-03
         - -6.0381420078172592e-04
         - 1.8854075803172517e-03
         - 8.4897424708162729e-03
         - -1.5349387992439354e-03
         - 7.6183389359327129e-03
         - -2.5242633346678569e-03
         - 3.9773751002894825e-03
         - -3.3463090634686427e-03
         - -1.0849446361763332e-03
         - 5.4568632345545381e-04
         - 3.1160960831577919e-03
         - 9.2961732559703142e-04
         - -2.6763117188482190e-03
         - -3.9347069937287057e-03
         - 2.6448631443141543e-03
         - 2.5686930816909924e-03
         - 2.3376622909492546e-03
         - 1.5762592135998284e-03
         - -4.9941873235543228e-03
         - -5.3702117017266999e-03
         - 4.4611273611323971e-03
         - 5.1021442857566972e-03
         - -2.0080788913705567e-03
         - 1.6468514316560694e-03
         - 6.4023931938245598e-03
         - 8.6539691217095492e-04
         - -1.3375518332301199e-03
         - -4.1987013289130843e-03
         - 7.7027319117808435e-04
         - -5.8149914157925820e-03
         - -3.7197027222668883e-03
         - 3.3536108969000299e-03
         - 1.0851200633654684e-03
         - -6.5328408446389532e-03
         - -1.1116697478301307e-03
         - -4.6727554506245201e-03
         - -2.8087284106034294e-04
         - -9.1851991081722982e-04
         - 4.1564863217328227e-03
         - -2.3329217940909592e-03
         - 4.8743712272601497e-03
         - -3.9111598265803658e-03
         - 5.5935228694910678e-04
         - 9.4698789131866790e-04
         - -4.2256540269612175e-04
         - -3.0438672745205994e-03
         - -9.8619424390950384e-04
         - 3.6275326208661980e-03
         - 1.6490996673548283e-03
         - -6.9675119257523741e-03
         - -3.5336331214745717e-03
         - 5.0206715213369007e-03
         - 4.3706855120273320e-03
         - 4.4071705758502174e-04
         - 4.1528622997601258e-03
         - -2.5573658090005495e-04
         - -7.1826825935677682e-04
         - -7.3913775660957605e-04
         - -4.4011354507182774e-03
         - 4.3054605632113357e-03
         - -3.7375066483598569e-03
         - -2.9755029437850645e-03
         - 4.9124400023572747e-03
         - -5.8056185212288537e-03
         - -8.7976092683045965e-04
         - 3.9079048786567231e-03
         - 4.3242508353510500e-04
         - -3.9042783839965734e-03
         - -4.9284705638023979e-03
         - 4.7560512760745155e-03
         - -9.0279162952257449e-04
         - -2.0162312551856541e-03
         - -1.7989260504559547e-03
         - 3.8290784650585369e-03
         - 3.4824948761142489e-03
         - -4.7627090111856370e-03
         - -2.7962129769188390e-03
         - -5.3718570298661025e-03
         - 1.9492319708890474e-03
         - 3.1319236781501675e-03
         - 2.8403311937257873e-03
         - -2.7045852227911772e-03
         - -5.3434168285255964e-03
         - 2.8395746301515209e-03
         - -3.8475318501503537e-03
         - 3.1961381003786996e-03
         - -4.1265692123168101e-04
         - 3.3251297737650807e-03
         - 1.0019760533751018e-03
         - 2.9520843586415118e-04
         - 5.5173783822652592e-03
         - 9.2131948857052549e-04
         - 2.8096139113316498e-03
         - 5.9495842926628900e-04
         - -2.6021358793201503e-03
         - -4.2923606372739396e-03
         - 5.6321147033123586e-03
         - 1.8325438876529265e-04
         - 3.9346110883286596e-04
         - 4.3801712764396164e-03
         - -1.0226245571323912e-03
         - 1.5037074146843396e-03
         - 6.2273996376507558e-03
         - -1.5388140752391866e-04
         - 2.3897754107990378e-03
         - 1.6449795838986126e-03
         - 8.3208651496498873e-04
         - -4.0669966780313262e-03
         - -1.5562235754122331e-03
         - -8.8347848296055115e-04
         - -7.7304391387613314e-04
         - 4.0026553552236326e-03
         - -1.2736316952913038e-03
         - -8.0533796429629167e-03
         - 6.0772107989322992e-03
         - -3.0693151809825228e-03
         - -1.4359291512131493e-03
         - -6.7645224829697304e-03
         - 3.2761919482590775e-03
         - -5.3383343928675026e-03
         - -5.9799095015372020e-04
         - 2.7373011787640554e-03
         - 2.8796414303224402e-04
         - -2.2646731275536148e-03
         - 5.7894584654696081e-03
         - 5.5483404202587303e-03
         - 7.4238603527522085e-03
         - -2.6209043807887368e-03
         - 9.1038703098374489e-04
         - -2.2176136418793598e-03
         - -1.7068848654082209e-03
         - -2.9784238522143304e-03
         - 2.7051815692996769e-03
         - -7.4073785147314064e-06
         - -4.7240802492475396e-03
         - 3.3966126064404020e-03
         - 1.0580061728006989e-03
         - 8.6113216679289527e-04
         - 1.1802307364264003e-03
         - -2.3104085336060707e-03
         - 8.4986869012089949e-04
         - 1.4343267328735595e-03
         - 2.1076388489255013e-05
         - 8.7036925437901228e-04
         - 2.2025560414332471e-03
         - -2.4332830974574593e-03
         - 2.8032526132520975e-03
         - 2.9862504980814218e-03
         - -1.0991500224571730e-03
         - -8.4249054977468627e-03
         - 2.3897787252164450e-03
         - 7.7670259564845178e-03
         - 3.7492988411933544e-03
         - 3.4099837670348225e-03
         - -4.7773438836584874e-03
         - -9.7106101347144396e-04
         - -6.8088276495740603e-03
         - -4.2747841562782154e-03
         - -3.2092744382221979e-03
         - 3.2264798220894399e-03
         - -8.5491787181747961e-04
         - -3.6404736447541784e-03
         - 1.7166878465484608e-03
         - 2.1799757977047462e-03
         - 7.2615685320904788e-03
         - -1.6006523561871262e-03
         - 2.0845602420401291e-04
         - 2.1467302052723611e-03
         - 2.2941651291284444e-03
         - -1.1629732531836777e-03
         - 2.2294226419386489e-03
         - -3.4977648242479334e-03
         - -3.8950503064747229e-03
         - -2.5425407371675443e-03
         - -1.4464318835353857e-03
         - 1.9339607961257996e-03
         - -1.3847077816351867e-03
         - 1.2094127464225462e-03
         - -7.3435527761088438e-04
         - 1.2344939865781828e-03
         - -7.0300113779478588e-03
         - 5.9485197391883340e-03
         - -7.1144243198669431e-03
         - 4.8994659950806633e-03
         - -2.4540645444943083e-03
         - -3.7832284256867829e-04
         - 1.4917258127605231e-03
         - 1.0618560315015656e-03
         - 1.9076584427669848e-03
         - -2.6726357544014649e-03
         - 7.7887723993145920e-03
         - 6.1655814783750625e-03
         - 1.6558997443952789e-03
         - -2.2842388370132574e-03
         - 1.6825942525969864e-03
         - -4.5279638399106656e-03
         - 6.7379582258692317e-05
         - 4.5918021143312050e-03
         - -4.2928635254451345e-03
         - -2.4860038564444766e-03
         - 6.7396653756994903e-03
         - -2.8161288677060046e-04
         - 9.6957880420939415e-03
         - 3.5683046667247089e-03
         - 2.8551546353761045e-03
         - -2.0477262937912150e-03
         - -1.7751566855451898e-03
         - 2.0522901436961661e-03
         - 5.2895907683569530e-03
         - 6.0905964681383623e-04
         - -4.6279759128959059e-03
         - -2.9376134580439084e-04
         - 4.4030812835048458e-04
         - -3.3462428392069727e-03
         - 4.7021212448336595e-03
         - -1.1617679841119241e-03
         - 4.4031094559070037e-03
         - -7.1842419378677731e-03
         - -6.2167562401561306e-03
         - 1.6892662549254987e-03
         - 2.4682525943889728e-04
         - 2.9959515693851967e-03
         - 2.3053870436150559e-03
         - 4.3708365319702026e-03
         - 7.3769920025551711e-03
         - 5.9860933873595937e-03
         - -2.1152396802555239e-03
         - -7.8797274910051953e-04
         - -3.1953823692681942e-03
         - -5.6125137579952494e-03
         - 3.8747535521027267e-03
         - -6.5102209464440999e-03
         - 2.8366345853664062e-03
         - -6.2205263810151974e-03
         - -9.2776293314060163e-04
         - 3.7662814185161673e-03
         - 2.2672280947570256e-03
         - 1.9024216050650068e-03
         - -4.0415198482155858e-03
         - 1.6947533912022817e-04
         - 4.8948673287062044e-03
         - 3.0799312485810491e-03
         - 3.5167023362351526e-03
         - 5.3197881843708127e-03
         - 6.1946143123683276e-03
         - -5.5386425882928227e-04
         - -2.5751916183581534e-03
         - 2.8298186342041510e-03
         - -3.2608230521899931e-03
         - -5.8915907996300758e-04
         - -2.7253964112543918e-03
         - 1.2246779945789053e-03
         - -7.7192347416266463e-04
         - 5.4396947815896473e-03
         - 8.9572532787023052e-04
         - -4.9795400531510358e-03
         - -5.1118856102061782e-03
         - -4.9244183463858209e-03
         - 2.4182627062345782e-03
         - 4.3798974601346801e-03
         - -6.0986282203545723e-03
         - 2.2444086578549158e-03
         - 5.4917660096562865e-03
         - -5.4875051391827401e-03
         - 5.1547561021070831e-03
         - 5.4518789436852340e-04
         - -1.9060025975738758e-03
         - 1.0846678392988003e-03
         - 4.2454063062933589e-03
         - 5.9511033155528236e-03
         - -8.8717989440069921e-04
         - -1.9756843872334260e-03
         - -4.0221979758034163e-03
         - -7.1234537166595005e-04
         - 4.0899736310670842e-03
         - -1.3110645204505889e-03
         - 1.1515568375722424e-03
         - -2.3336200262586795e-04
         - 6.0583457133462715e-03
         - 5.6471162180984687e-03
         - -7.1555782270200895e-03
         - 7.3866159672585096e-04
         - -1.5443949877909157e-04
         - 6.7332283489776991e-03
         - -5.5420925839478269e-03
         - 9.4795425200982749e-04
         - -2.6241192023681932e-03
         - 1.8127138137191106e-03
         - -8.1825953293381329e-04
         - -1.7747127939041318e-03
         - 1.9591533531462869e-03
         - 3.4363396980828650e-03
         - 2.3221736129612246e-03
         - -6.2867323921452656e-03
         - -3.5539048600540992e-03
         - -6.3926362067072409e-03
         - 1.1019044914934708e-03
         - 2.4357117679940019e-03
         - -3.6955445043290705e-03
         - 1.5950461198797096e-03
         - 3.6805265941464594e-03
         - 3.8048462177616665e-03
         - 4.9661014330022431e-03
         - 4.2422437415852747e-03
         - 5.3839328066092934e-03
         - -4.9096509136150907e-04
         - 2.6727182380073562e-03
         - 2.5318038476912718e-03
         - 1.8184411888439965e-03
         - -3.1181683691034780e-03
         - -3.9194661184560938e-03
         - -4.0213754714280786e-03
         - -2.2430473432830558e-03
         - -1.5147552655533545e-03
         - 5.1677914120297798e-03
         - -5.5651767917284560e-03
         - -2.9132224645862718e-03
         - 1.7763865316721475e-03
         - 2.9624169266658047e-03
         - 2.4353330508290649e-03
         - 2.9911559888606710e-03
         - -1.6032763645989782e-03
         - 8.0681931402476015e-04
         - 1.7726654698971282e-03
         - 2.6649100449238038e-03
         - 2.9600464547472616e-03
         - 2.8495596125155827e-03
         - 1.3451252520038576e-03
         - -5.1885297505213591e-04
         - -3.3538056539420694e-03
         - -4.5170086712902251e-03
         - 1.5369696935041990e-03
         - -2.9482473813961718e-03
         - -7.3929307288099193e-03
         - -3.5441088707890904e-03
         - 2.9897181727427985e-03
         - -3.0038718792752589e-03
         - 7.5079073770189259e-03
         - 1.1906147847540894e-03
         - -3.1207127205636134e-03
         - -1.6792128901836510e-03
         - 4.4319999394850460e-03
         - 2.9261840441780224e-03
         - 1.9189860225676525e-03
         - 1.2393313257613729e-03
         - -3.6983265832618967e-03
         - -1.5027310977385130e-03
         - -2.3753754615529706e-03
         - -3.3694674937927078e-03
         - 2.6170977725102168e-04
         - 4.3307918517796595e-03
         - 1.9349623571737380e-03
         - -2.6317005778165549e-03
         - 5.5813307791575595e-03
         - -4.4518807703583709e-03
         - -4.3394832647325994e-03
         - -5.4809716219368747e-03
         - 1.5357310534867454e-03
         - -1.4241076500906586e-03
         - -9.3519711753268456e-04
         - -1.9427683292903895e-03
         - -3.0548948085426129e-03
         - 3.0845281133718878e-03
         - -8.6560192055411993e-04
         - -2.7446110912020569e-03
         - -1.5061649200664435e-03
         - -3.2495274453833382e-03
         - -2.2582992555620785e-03
         - -3.1738200710302836e-03
         - 6.6307919182672995e-03
         - 3.8041442956478675e-03
         - -3.7403689369863977e-03
         - -4.9157310002147540e-03
         - 4.4864809607376762e-03
         - 1.5304730390724931e-03
         - -2.5818623743153008e-03
         - -4.3260718942417370e-03
         - 3.5148288331525840e-03
         - 3.8786803001904782e-03
         - -1.4868965127468052e-03
         - 2.2035490308840804e-04
         - -1.4719377192494829e-03
         - 9.2080906960924317e-05
         - 1.2051491934603989e-03
         - -6.0898318319900710e-03
         - 3.6335409183962499e-03
         - 1.9236202464622261e-03
         - 4.1930016246109515e-03
         - -1.6959235789254356e-03
         - -4.5921643120039515e-03
         - 5.4471423983310499e-03
         - 6.0097622275649871e-04
         - 1.4842667903545701e-03
         - -2.9241544420447866e-03
         - -1.9289223781692292e-03
         - -6.7507365112920101e-04
         - -5.8554952313872091e-04
         - -2.1555996170253919e-03
         - 9.8565387300905694e-04
         - -2.2823895320599310e-03
         - 6.2377956976720364e-03
         - -2.3220872924455534e-04
         - 3.9718814464891443e-03
         - -2.6723142063847655e-03
         - 2.5637330431406832e-03
         - 3.0522083681553563e-03
         - 2.0437044865146579e-03
         - -5.8273802283671143e-03
         - 2.8448942210081325e-03
         - -2.2724109186828855e-04
         - -2.7321949685058132e-03
         - -2.6896109395223044e-03
         - 3.7565716938133919e-03
         - -1.3567031651774968e-03
         - -3.2864706035403745e-03
         - -1.2938732814231928e-03
         - 3.0705760745860112e-03
         - -2.7692344773355411e-03
         - -5.1978691449907121e-03
         - 8.0445901531056010e-04
         - -1.4123572298204170e-03
         - 4.1709379872946198e-03
         - 3.9568614705367015e-04
         - 1.5450558151909538e-03
         - 4.9379164271184054e-03
         - 6.1921545815803673e-03
         - -2.1932659065090839e-04
         - -5.5378560285097326e-03
         - 4.1289554648890068e-03
         - -2.1109289877799193e-03
         - -1.2244233941090558e-03
         - -5.8877545624857824e-04
         - 3.7312182616161052e-03
         - -5.9748463334782431e-03
         - 2.4806822701156795e-03
         - -4.5255523405167862e-03
         - 1.2827838421113982e-03
         - -3.3213397672526073e-03
         - -1.7383598668970083e-03
         - 3.3773412360452943e-03
         - 3.1649101777300102e-04
         - -2.0806500159099494e-03
         - -3.0809950721323825e-03
         - 4.0494460463044403e-03
         - 2.7877306159048619e-04
         - 2.9507514666694125e-03
         - 3.8517724427977102e-03
         - 2.8042026974105017e-03
         - -1.1334462003677178e-03
         - -1.9437690182025713e-03
         - 1.7340891890548166e-03
         - 2.9032542009538144e-03
         - 2.6356653308944877e-03
         - 1.9340401254604165e-03
         - 3.6022759136456048e-03
         - -2.3007065449679709e-03
         - -4.5051652476715233e-03
         - -7.6216772001895072e-05
         - -1.9037287716760257e-03
         - -2.9040149238136032e-03
         - 6.6893742442105406e-04
         - -1.5248459109316365e-03
         - -4.6940463600486431e-04
         - -1.7261805721708861e-03
         - -9.6797405536759064e-04
         - 4.4510710248831954e-03
         - 3.2618761064401127e-03
         - 4.9872637416936549e-03
         - 1.3374833919857518e-03
         - 4.3574029391247543e-03
         - -4.3449568537776125e-03
         - -2.9544531723878892e-03
         - 1.9966054584932009e-04
         - 3.0457292246671556e-03
         - -3.9153762044843348e-03
         - 3.7174532520219625e-05
         - -2.3438070482178063e-03
         - -2.5706126618625005e-03
         - 7.7228720222859159e-04
         - 4.9998134627169217e-03
         - -3.7435523829061320e-03
         - 3.8415894786111788e-03
         - 1.8095813348657649e-03
         - 3.1169070051627087e-03
         - -3.2880017544205378e-03
         - 2.2411057586167855e-03
         - 7.6617181515594807e-05
         - 3.2279898265606742e-03
         - 4.7061783129037178e-03
         - 2.3802049758113297e-03
         - -3.0119408663409827e-03
         - -4.1189750019761696e-03
         - 2.4389228854931628e-03
         - -3.7513002318512196e-03
         - 2.4073651516528668e-03
         - -3.5497700260916040e-03
         - -2.6944667492351778e-03
         - -1.4596022062133968e-04
         - -4.5884841567849187e-03
         - -2.3247797323914252e-04
         - -2.4355782986995572e-03
         - 3.1801686544285003e-03
         - 6.0143319590103810e-03
         - 2.9738507975070241e-03
         - -4.0034547053613909e-03
         - -3.7851238580346833e-03
         - 4.2039474916591149e-03
         - -4.6888046057248813e-03
         - -3.0408597626851051e-03
         - -9.2538567878680327e-04
         - -3.3023267549009117e-03
         - 3.4403783213325925e-03
         - 3.0248539784582086e-03
         - -1.1946437263103155e-04
         - 1.0541944498210266e-03
         - 1.0248432988280089e-03
         - -1.0115183796229745e-04
         - -2.5393744585587271e-04
         - 2.7103609591341269e-03
         - 3.2118763657930259e-03
         - 1.2077181624109993e-03
         - 2.8319422348249057e-03
         - 1.1249180313158272e-03
         - -3.9123175843988360e-03
         - -2.4977581204934285e-04
         - -3.3816329876303662e-03
         - 1.9592625707020323e-03
         - 1.9386265412622379e-03
         - 2.2029061398031739e-03
         - -6.2633271997444796e-04
         - -1.9451712971325563e-03
         - -1.1528792537152906e-03
         - 5.7793586608718191e-04
         - 1.3666290311573602e-03
         - -7.0193252492866353e-04
         - 4.0610638953394000e-03
         - 4.7975230210159482e-03
         - -2.3801081496643093e-04
         - -1.1488729338682501e-04
         - 1.2743492073931865e-03
         - -9.3897328416235842e-04
         - 2.0137743673412623e-03
         - -3.2849561117013052e-03
         - 6.6815035961815129e-04
         - -5.5469540886960616e-03
         - 3.7661688755600432e-03
         - 3.9560835720641426e-03
         - 2.2923987313220352e-03
         - -1.5444185971977770e-03
         - 5.0306333507526427e-03
         - -3.9138613949889767e-03
         - 2.8348114623019905e-03
         - -3.9624168290773826e-04
         - -5.0489478941096412e-03
         - 2.6210991129413737e-03
         - -3.4456316664785110e-03
         - 3.4617889932414786e-03
         - 1.0280049681217602e-03
         - -4.2963810187297237e-03
         - -9.5127475505566968e-04
         - 5.0929647024667924e-03
         - 1.3103200317842096e-03
         - -9.3152520752216210e-04
         - 4.4501468495749776e-04
         - 3.9135324940560903e-03
         - -5.1619733534584095e-03
         - 1.5182775995405267e-04
         - -1.7265919936888588e-03
         - 8.7930048347542383e-04
         - -9.0419437082146022e-04
         - 3.3122426084581953e-03
         - -2.2548026883628203e-04
         - -5.3775342440180610e-04
         - -3.7517275357839461e-03
         - -3.0156379620614594e-03
         - -4.0288370134677351e-03
         - -1.6817085970769151e-03
         - 3.8540937928055407e-03
         - -1.7143171280078566e-03
         - -3.2358185745423734e-03
         - 2.2402745348494993e-03
         - 4.3051741110654079e-03
         - 7.5587979964386439e-07
         - 4.3013035629469142e-03
         - 1.7462611348875979e-03
         - 4.4463695070470557e-03
         - -5.3151829090701162e-04
         - -4.3450407441197247e-03
         - 3.6766435725573846e-03
         - 3.9573783327640413e-03
         - -1.4051954964674350e-03
         - -1.9902607895130237e-03
         - -1.6814005155102029e-03
         - -3.0030063080725769e-03
         - 1.0807357298735039e-04
         - 3.0329845210913674e-03
         - 1.5367263771201686e-03
         - -3.6782593415039932e-03
         - -5.8697330812028869e-04
         - -3.6145030025897351e-03
         - -2.5224871452300575e-03
         - 1.2755359471086603e-03
         - 1.0742975306925685e-03
         - -2.0221880491754409e-03
         - 2.9066177869117287e-03
         - -3.9945694360469788e-03
         - 3.0746995941113649e-03
         - 3.1092443032850175e-03
         - -3.1017131164715055e-03
         - 2.0868179673586354e-03
         - -2.6200539426381926e-03
         - -4.7974697949266952e-03
         - -4.8954490951537552e-03
         - 3.0646937411227222e-04
         - 3.9694865690034923e-03
         - -2.8654397806930137e-03
         - 1.4680345925399579e-04
         - -2.1546739229292866e-03
         - 4.6866398159958562e-03
         - -3.9186934988605787e-03
         - 2.5605610051568128e-04
         - -2.8536749257239325e-03
         - -1.6716479813319370e-03
         - 5.5804494840787139e-04
         - 2.3183210492511049e-03
         - -3.5477392342367861e-03
         - 2.1052613831748623e-03
         - -1.4664668698655295e-03
         - 2.1766567374153019e-03
         - 3.3977015406895248e-03
         - 2.3984522212112570e-06
         - 5.4509522065402790e-03
         - 2.5614000740291324e-03
         - 6.1911964708089261e-03
         - -1.6216545771016466e-03
         - -4.2511271509460867e-03
         - -5.0611839785479876e-04
         - 3.0567067723315769e-03
         - 1.1030178918697117e-03
         - -6.7532051792940377e-04
         - -4.2906571534416351e-03
         - -3.5540136859792794e-03
         - 5.9415656804653861e-04
         - -4.0878057440479751e-03
         - 1.5794171299427721e-03
         - 3.1096944612918424e-04
         - 4.1950755694688665e-03
         - -2.3562803661253480e-03
         - -1.6639739582366012e-03
         - -2.9001400876093484e-03
         - 4.1480746256971849e-03
         - -2.6103806063829146e-03
         - 2.0681600716540576e-03
         - -5.3065521537960358e-03
         - -4.7636549543525074e-04
         - -1.6880420908111163e-03
         - 5.3180933617219791e-03
         - 3.2544710866185900e-03
         - -3.5663699609657417e-04
         - 1.4832666600931676e-03
         - 9.9776991362050598e-04
         - 4.9369494418131281e-03
         - 1.7501164381312380e-03
         - 2.4045393264381645e-03
         - 2.6040086454858940e-03
         - -5.2061207848349130e-03
         - -3.4257333319363428e-03
         - -4.7911582151235945e-03
         - 7.4843826830144132e-04
         - -3.5637903375804262e-04
         - -1.4757638422002672e-03
         - -1.3326156397536592e-03
         - 2.5650792266476308e-03
         - -2.8400490178561578e-03
         - 2.3153555346472456e-03
         - 4.6863024671647182e-03
         - 1.8246022751224781e-05
         - 4.5780107566640808e-03
         - 1.5206487326391250e-03
         - -5.7660231217873002e-03
         - -2.1979215237197154e-03
         - 2.3378594796048780e-04
         - 4.5549198641536863e-03
         - -1.3105589827395227e-03
         - 3.9458354289675351e-03
         - 2.8215748300206020e-03
         - 7.2857186081936903e-04
         - -6.1718952240270982e-03
         - -2.6111867453037963e-03
         - 5.3216819422518694e-03
         - -1.6409928634166797e-03
         - 3.2413438643374474e-03
         - -3.3327069489495786e-03
         - 2.0662504249857479e-03
         - -4.0885916830785303e-03
         - -3.2978348901374892e-03
         - -3.9756730229730400e-03
         - -1.6036670381165397e-03
         - 1.6727740282721478e-03
         - -1.5432775997244153e-04
         - 5.0597238219973208e-04
         - -4.5491517841085918e-03
         - -3.1642239380609001e-03
         - -2.3378648982063906e-03
         - 4.1464698667501395e-04
         - -2.3337005270054746e-03
         - 1.2439225716232686e-03
         - 1.8627423696795811e-03
         - 2.8410519584172538e-03
         - -3.3598348333219513e-03
         - -8.1623557856258045e-04
         - 3.0353487741607127e-04
         - -4.5262601003296732e-03
         - -3.0684899854250798e-03
         - -3.3620146584847749e-03
         - 3.3446376592321516e-04
         - -2.1392318096860922e-03
         - -5.4039034904431252e-04
         - 1.1574022301190718e-05
         - -3.1255829874623949e-03
         - 1.6442864579817003e-03
         - -1.4705530658906665e-03
         - 2.6021566368710636e-04
         - 3.2908457622724736e-03
         - 2.2580599517812603e-03
         - 6.9085273297897392e-03
         - 3.6185993479626193e-03
         - -1.8460639230674732e-03
         - 3.2302297399178252e-03
         - -1.0959720728221648e-04
         - 9.6743832693087543e-04
         - -2.7969670497785823e-03
         - -3.7252516546102147e-03
         - -3.3266684858020085e-03
         - -1.4929794933808227e-04
         - -3.8937079743785871e-03
         - 3.9957270728616209e-04
         - -1.6670903662485419e-03
         - 3.0053875184334836e-03
         - 8.1941793438695346e-04
         - -3.3966443590014751e-03
         - 6.4651479330048969e-04
         - -3.8640979979813125e-03
         - -1.0230239106877250e-04
         - 6.1570228794083108e-03
         - 3.3531556367937376e-03
         - 3.9023701026541912e-03
         - 5.5574062451666474e-03
         - -6.8396693822556443e-03
         - 2.2976536890816721e-03
         - -4.5954498020611266e-04
         - -1.9613771221864496e-03
         - -4.1780900268653647e-03
         - 1.0095433265967153e-03
         - 2.5519182087890189e-03
         - 1.9343893198135690e-04
         - -4.2976867306481177e-03
         - -4.8512289883052336e-03
         - 1.9297654751219316e-03
         - -2.0899544644599134e-03
         - -5.3476919940254886e-03
         - 3.4345704035640490e-03
         - -1.5828732692184096e-03
         - -8.9073481429915904e-04
         - 4.6183097291825790e-03
         - 3.9734701582338737e-03
         - 2.3150279305102321e-03
         - -4.3404680221725616e-03
         - 2.2379602702598087e-03
         - 3.9972090189173077e-03
         - 1.6605425233240470e-03
         - 3.7461775064487686e-03
         - 2.6629623883929971e-03
         - -3.0680941238095377e-03
         - -4.5682268798766072e-03
         - -1.6415851133989550e-03
         - 2.1771483944102764e-03
         - 8.2767097732415853e-04
         - 4.2655111276415020e-03
         - -3.1290189719395097e-03
         - -2.2752984797396181e-03
         - 2.2025672297929667e-03
         - -1.5862328548886513e-03
         - -2.0144816590045734e-03
         - -1.0686590127428420e-03
         - -1.7623069893827328e-03
         - 5.4049783297311993e-03
         - 3.4785628839515304e-04
         - -8.6460727434522653e-04
         - 1.5213148305039247e-03
         - -9.9363274687825254e-04
         - -1.5410511798101393e-03
         - -1.0550581722444817e-03
         - -6.0211207804969896e-03
         - 5.1554201363535673e-03
         - 2.2760605707092653e-03
         - 3.7262183633352294e-03
         - 4.9717643046264838e-03
         - -3.6719747284471500e-03
         - 2.3527170503507759e-03
         - 2.3226491025191282e-03
         - -2.7882514786138793e-03
         - 1.1092986987598851e-03
         - -1.7229115127619897e-03
         - -2.1375435067574593e-03
         - -3.9464039779894267e-03
         - 4.0744041774938254e-03
         - 1.4989098102113625e-03
         - -3.2778282714318006e-03
         - -1.0667747487253609e-03
         - -2.8863444760453584e-03
         - -2.6587219929868496e-03
         - -3.7500150641159428e-03
         - -3.6665408915768690e-03
         - 4.8736046103385194e-03
         - 2.1759017668615830e-03
         - -4.6420130393204154e-03
         - -5.6906572987414084e-03
         - -1.5282528922337527e-03
         - -1.0951787159819055e-03
         - 2.6133356885039683e-03
         - -1.8445986249057422e-03
         - -2.0127948679169944e-03
         - 2.6417037662761879e-03
         - -1.6920079543626730e-03
         - -2.1546847962465396e-03
         - 1.6086669340049618e-03
         - 3.4009768523202868e-03
         - -3.6984556599015833e-03
         - -2.6688477311765219e-03
         - 1.1185524560989588e-03
         - -2.8846394127700955e-03
         - -3.8944030778428900e-03
         - -4.8166722144281490e-03
         - -1.8668353192503875e-03
         - -1.2161707203478791e-03
         - -3.8660567955833016e-03
         - 6.9318176016444121e-03
         - 6.9287376382677407e-04
         - -3.5856136024665819e-03
         - 3.5226108314250263e-03
         - -2.3182129977311976e-03
         - -3.7560804594234040e-03
         - -1.9319668127510460e-03
         - 2.4073059234152941e-03
         - -4.7341298801873242e-03
         - 1.3662519568606688e-04
         - -4.4590045531611825e-04
         - 7.9624153992063624e-04
         - -3.6968358179415230e-03
         - 4.2013107835164511e-03
         - 3.0684293333085944e-03
         - 1.5213678463239102e-04
         - 6.8114359295783544e-04
         - -1.3999996681059754e-03
         - -1.2642972599745988e-04
         - 3.2366649988634349e-03
         - 3.6350425642348058e-03
         - -1.7416356486711772e-03
         - 4.9865699746458564e-04
         - -3.4787547566464123e-03
         - 1.8739437425958983e-03
         - 3.2756506034304980e-03
         - -1.8740746261878475e-03
         - 3.8910533752765947e-03
         - -2.0479739980155108e-03
         - 1.8716617735276698e-03
         - 3.0571027533116829e-03
         - 1.9782649152960390e-03
         - 2.9520141398516400e-03
         - 1.4953723562582432e-03
         - -2.7171780469328688e-03
         - -4.7451115717653787e-03
         - -4.2171835452121508e-03
         - -2.4651402992356621e-03
         - 2.8116642999745176e-03
         - -4.4443807485831854e-03
         - -1.7597351906380111e-03
         - 4.3212636777094134e-03
         - 2.5315183015377240e-03
         - 3.1598322141760853e-03
         - 2.7743668795126354e-03
         - -3.2341385548828837e-03
         - 6.1583837069024002e-03
         - 1.9189298756181639e-03
         - -4.1638545869332510e-03
         - 2.5890647383052419e-03
         - 3.2393729633828634e-03
         - -1.4605199218235792e-03
         - 1.5302821490294721e-03
         - 2.9105203474619062e-03
         - 1.0166826348022746e-03
         - 6.1205268754400957e-03
         - -1.4764387535016479e-03
         - 1.7571903306394037e-03
         - 3.3268093929567670e-03
         - 2.4343880121779622e-03
         - 4.1075986638334150e-03
         - 1.9859507957781751e-04
         - -6.9812861172286692e-04
         - 1.1258308378560202e-03
         - 2.5469211417072676e-03
         - 5.1620046922484838e-03
         - 4.7516102451770790e-03
         - 4.9116424230176347e-03
         - -5.1052074128416390e-03
         - 3.7035008842616995e-04
         - 1.5050487841769349e-03
         - 3.9860560995164263e-03
         - -4.8421055516459331e-03
         - -2.5225353432231801e-03
         - -3.8425955628076268e-03
         - 2.4928119394337124e-03
         - -1.4294016230415420e-03
         - -2.7376327094275712e-03
         - 7.6168443022088354e-04
         - -3.9426012192136494e-03
         - 8.6825290701804999e-04
         - 3.4001733708128238e-03
         - 3.6420823441755032e-03
         - -2.9277064150177354e-03
         - 6.6378920696346798e-04
         - 2.5058705367953692e-04
         - 3.7106052195860335e-03
         - -8.3675320865727622e-04
         - 6.8868194696955758e-04
         - 5.7196021995173218e-03
         - -6.0437791587042624e-03
         - 1.7772060097170346e-03
         - 1.9513367963214605e-03
         - -7.7493601550250135e-04
         - -2.2127570705019486e-03
         - 3.2344918928242550e-03
         - -6.8887073080685117e-03
         - -3.7171023241304884e-03
         - 2.1537102483498165e-03
         - -2.5695254232253276e-03
         - 4.0764904576379027e-03
         - -3.2071349157649447e-03
         - -2.4457078783799444e-03
         - 2.5457250678500901e-03
         - -3.9412995929681187e-03
         - 2.1796367483602418e-03
         - 5.0093432906103260e-03
         - -8.3898989798493766e-04
         - -3.9397911515893381e-03
         - 8.2550155523163772e-06
         - 8.3386234153452234e-04
         - -6.4323589287819645e-03
         - 6.5267481303536181e-04
         - 1.0205977279073445e-03
         - 6.7571779717941179e-03
         - -1.9273073597039776e-03
         - 4.2098258767339610e-03
         - 1.2509345920538149e-04
         - 7.6060550182557472e-05
         - -3.2854385273780613e-03
         - -6.6054394218186398e-04
         - -2.5725918027512213e-03
         - 1.1720086332186891e-03
         - 2.0925900352323822e-03
         - -2.9800744598104402e-03
         - 4.6969765822685947e-03
         - -4.5880760931086862e-04
         - 5.2044532909776417e-03
         - -1.7732047541727546e-03
         - -3.5520119740639704e-03
         - 2.5490015851759519e-03
         - -9.4844135316407834e-04
         - 2.0152086856655891e-03
         - 1.8861407528660511e-03
         - -1.1495968210271173e-03
         - -4.9846392698071288e-03
         - -1.9371552638967210e-04
         - 4.1847020876802209e-03
         - -5.4869072757795390e-03
         - -2.7764572761957282e-03
         - -2.6264966353409880e-03
         - -3.5491088148399669e-04
         - -1.6284269989112648e-03
         - 2.4487895197929464e-03
         - 7.5099512406298749e-04
         - -1.0917727457157717e-03
         - 3.4212124546112908e-03
         - -3.0088207078022792e-03
         - -3.8864268653114840e-03
         - 3.7115797662289746e-04
         - 4.9718016924970897e-03
         - 2.4712806712198112e-03
         - -2.4955334605917573e-03
         - 6.6729210483796736e-03
         - 3.9055762200387082e-03
         - -4.9588801944724123e-04
         - -1.5215539374445084e-03
         - 3.0087782967055153e-03
         - -4.4698905914514666e-03
         - 2.8016103537114273e-03
         - 5.6147728928736063e-03
         - 1.5471455542262057e-03
         - 1.4435211327763653e-03
         - 6.1306746794574010e-03
         - 2.9477602218082267e-04
         - 6.3490588544432326e-03
         - -6.4018135201441531e-04
         - 2.7619017816318506e-03
         - -6.3552498543335886e-03
         - 3.4819120852317854e-03
         - -1.3527316518466028e-03
         - 1.1856408729251356e-03
         - 8.6230517835880250e-04
         - 2.8186154786139237e-03
         - -3.7480453758826893e-03
         - -3.6712116148180252e-03
         - -4.7728663620597361e-03
         - -1.7481400333938888e-03
         - 2.7322363191217762e-03
         - 2.6167747882589539e-03
         - -1.5654582635114911e-03
         - -1.9885566076290211e-03
         - -2.4501557180600349e-03
         - -2.2149529158658633e-03
         - -5.2506323423805287e-04
         - 3.0464695924252087e-03
         - 1.4047328296551813e-03
         - -1.3324801933305484e-03
         - 4.5036072036187509e-03
         - 4.6734420664229148e-03
         - -6.0185800997844660e-04
         - -2.9276797185482045e-04
         - 2.5331018179272674e-03
         - -3.1154755541582695e-03
         - 3.7893253289131824e-03
         - 6.5157044773675780e-04
         - 4.4049862290795319e-03
         - -3.1064604087821597e-03
         - -2.8701793015727085e-04
         - -8.7958637861863473e-04
         - 4.1720539621149192e-03
         - 3.6488338609008204e-03
         - -1.7874575514940560e-03
         - 1.9097152531131019e-03
         - 3.9987431282936586e-03
         - -5.2633878936353038e-04
         - -1.9888425821635650e-03
         - 3.0557285910355284e-03
         - 7.2931287146432017e-04
         - 1.5789239332571860e-03
         - 3.2962464524563450e-03
         - 3.9408414700212585e-03
         - 1.0004387849875962e-03
         - 2.3137046614038941e-03
         - 5.8727240632267647e-04
         - 4.3604237022585226e-03
         - -8.6247363192650699e-04
         - -7.9523328291867545e-05
         - -3.8018487978908676e-03
         - 3.3560914942754325e-03
         - 2.4062525635985374e-03
         - -2.7611355896062094e-03
         - 9.2028139913459029e-04
         - -5.0465258835609029e-03
         - -3.0990336063959028e-03
         - -3.9194794501063350e-03
         - 2.7985994377664062e-03
         - -9.4236700235040139e-04
         - -3.7370103582512501e-03
         - -4.7007789508991468e-03
         - -2.1660190500635578e-03
         - 2.1090734376816717e-03
         - -3.7834593934052692e-03
         - -3.4798525976525805e-03
         - 3.7527092076183525e-03
         - -1.2576557929047840e-03
         - 5.0108360905945287e-03
         - 8.4960145419565435e-04
         - -9.5626256590753431e-04
         - 2.0918047971321208e-03
         - 4.0114106552321699e-04
         - -2.9807413528957429e-03
         - 2.3536831581172568e-03
         - -2.7365800107116097e-03
         - -2.0101452734907713e-03
         - -2.7008581039261771e-03
         - -1.7625252534489043e-04
         - -2.7799344000837630e-03
         - -2.1698706417136887e-03
         - -3.3871555437781927e-04
         - 4.1796921106976512e-03
         - 2.8688359472351464e-03
         - -1.8742242755341975e-03
         - 2.1443037028731579e-03
         - -1.6746156956058179e-03
         - 5.0155761435751326e-03
         - 1.3982731565353812e-03
         - -1.9660850258939835e-04
         - -1.5072316144766802e-03
         - -2.0849057138646768e-03
         - 2.7126168030236521e-03
         - 1.7007241868335636e-03
         - 4.8425096558849472e-04
         - -2.2208156165235021e-03
         - -2.8632470409391828e-03
         - 5.6386894466723039e-03
         - -1.3431200006289547e-03
         - 1.5264341464693418e-03
         - 1.7659310481132082e-03
         - 2.5629140705223058e-03
         - -2.5357841366160927e-03
         - 1.6512892468425098e-03
         - -2.1139425101326034e-03
         - -2.2891939047256331e-03
         - 5.0291322246048325e-03
         - 1.2429074935285114e-03
         - -1.4186442739680439e-03
         - -1.4607869082590211e-03
         - -8.9782863553727375e-05
         - -3.1516283754291401e-03
         - 2.7282940965867777e-03
         - 5.6553225960998118e-03
         - 4.1795690839869825e-03
         - -6.4571099905031820e-03
         - 2.5980121556782028e-03
         - -2.0990344957841733e-03
         - 3.2024883755860153e-03
         - -3.4344353570835372e-03
         - -7.2175849400116666e-03
         - 1.1574273148477468e-03
         - 3.7974300720239407e-03
         - 1.6115686600186444e-03
         - 5.8246695438897217e-03
         - 4.1502400208172788e-03
         - -3.8027705821450587e-03
         - 3.9771725699744810e-03
         - 2.3009686661429134e-03
         - 5.0427585276484133e-03
         - 1.7486389627524976e-03
         - -1.8160452996554847e-03
         - -6.5039846032156901e-03
         - 3.7076880875927102e-03
         - 7.8375391667635124e-04
         - -3.4605853456428984e-03
         - -3.6109956722722384e-03
         - 2.3512156609624842e-03
         - -6.0281016271004815e-05
         - 8.6771538065828107e-04
         - 3.3137069109369526e-03
         - -6.1372996315780539e-04
         - -2.0162361747991030e-03
         - -7.8423361660475994e-04
         - 7.1140646391190786e-03
         - 3.7585316085607372e-03
         - -6.0274327200140745e-03
         - -4.7891393755114366e-03
         - 2.0545191482596357e-04
         - 4.8583756539274036e-04
         - 6.6271999463698224e-04
         - 2.9231367478026074e-03
